{"learner":{"attributes":{"best_iteration":"405","best_score":"0.9535307106959207"},"feature_names":["amt","job","category","city"],"feature_types":["float","c","c","c"],"gradient_booster":{"model":{"gbtree_model_param":{"num_parallel_tree":"1","num_trees":"506"},"iteration_indptr":[0,1,2,3,4,5,6,7,8,9,10,11,12,13,14,15,16,17,18,19,20,21,22,23,24,25,26,27,28,29,30,31,32,33,34,35,36,37,38,39,40,41,42,43,44,45,46,47,48,49,50,51,52,53,54,55,56,57,58,59,60,61,62,63,64,65,66,67,68,69,70,71,72,73,74,75,76,77,78,79,80,81,82,83,84,85,86,87,88,89,90,91,92,93,94,95,96,97,98,99,100,101,102,103,104,105,106,107,108,109,110,111,112,113,114,115,116,117,118,119,120,121,122,123,124,125,126,127,128,129,130,131,132,133,134,135,136,137,138,139,140,141,142,143,144,145,146,147,148,149,150,151,152,153,154,155,156,157,158,159,160,161,162,163,164,165,166,167,168,169,170,171,172,173,174,175,176,177,178,179,180,181,182,183,184,185,186,187,188,189,190,191,192,193,194,195,196,197,198,199,200,201,202,203,204,205,206,207,208,209,210,211,212,213,214,215,216,217,218,219,220,221,222,223,224,225,226,227,228,229,230,231,232,233,234,235,236,237,238,239,240,241,242,243,244,245,246,247,248,249,250,251,252,253,254,255,256,257,258,259,260,261,262,263,264,265,266,267,268,269,270,271,272,273,274,275,276,277,278,279,280,281,282,283,284,285,286,287,288,289,290,291,292,293,294,295,296,297,298,299,300,301,302,303,304,305,306,307,308,309,310,311,312,313,314,315,316,317,318,319,320,321,322,323,324,325,326,327,328,329,330,331,332,333,334,335,336,337,338,339,340,341,342,343,344,345,346,347,348,349,350,351,352,353,354,355,356,357,358,359,360,361,362,363,364,365,366,367,368,369,370,371,372,373,374,375,376,377,378,379,380,381,382,383,384,385,386,387,388,389,390,391,392,393,394,395,396,397,398,399,400,401,402,403,404,405,406,407,408,409,410,411,412,413,414,415,416,417,418,419,420,421,422,423,424,425,426,427,428,429,430,431,432,433,434,435,436,437,438,439,440,441,442,443,444,445,446,447,448,449,450,451,452,453,454,455,456,457,458,459,460,461,462,463,464,465,466,467,468,469,470,471,472,473,474,475,476,477,478,479,480,481,482,483,484,485,486,487,488,489,490,491,492,493,494,495,496,497,498,499,500,501,502,503,504,505,506],"tree_info":[0,0,0,0,0,0,0,0,0,0,0,0,0,0,0,0,0,0,0,0,0,0,0,0,0,0,0,0,0,0,0,0,0,0,0,0,0,0,0,0,0,0,0,0,0,0,0,0,0,0,0,0,0,0,0,0,0,0,0,0,0,0,0,0,0,0,0,0,0,0,0,0,0,0,0,0,0,0,0,0,0,0,0,0,0,0,0,0,0,0,0,0,0,0,0,0,0,0,0,0,0,0,0,0,0,0,0,0,0,0,0,0,0,0,0,0,0,0,0,0,0,0,0,0,0,0,0,0,0,0,0,0,0,0,0,0,0,0,0,0,0,0,0,0,0,0,0,0,0,0,0,0,0,0,0,0,0,0,0,0,0,0,0,0,0,0,0,0,0,0,0,0,0,0,0,0,0,0,0,0,0,0,0,0,0,0,0,0,0,0,0,0,0,0,0,0,0,0,0,0,0,0,0,0,0,0,0,0,0,0,0,0,0,0,0,0,0,0,0,0,0,0,0,0,0,0,0,0,0,0,0,0,0,0,0,0,0,0,0,0,0,0,0,0,0,0,0,0,0,0,0,0,0,0,0,0,0,0,0,0,0,0,0,0,0,0,0,0,0,0,0,0,0,0,0,0,0,0,0,0,0,0,0,0,0,0,0,0,0,0,0,0,0,0,0,0,0,0,0,0,0,0,0,0,0,0,0,0,0,0,0,0,0,0,0,0,0,0,0,0,0,0,0,0,0,0,0,0,0,0,0,0,0,0,0,0,0,0,0,0,0,0,0,0,0,0,0,0,0,0,0,0,0,0,0,0,0,0,0,0,0,0,0,0,0,0,0,0,0,0,0,0,0,0,0,0,0,0,0,0,0,0,0,0,0,0,0,0,0,0,0,0,0,0,0,0,0,0,0,0,0,0,0,0,0,0,0,0,0,0,0,0,0,0,0,0,0,0,0,0,0,0,0,0,0,0,0,0,0,0,0,0,0,0,0,0,0,0,0,0,0,0,0,0,0,0,0,0,0,0,0,0,0,0,0,0,0,0,0,0,0,0,0,0,0,0,0,0,0,0,0,0,0,0,0,0,0,0,0,0,0,0,0,0,0,0,0,0,0,0,0,0,0,0,0,0,0,0,0,0,0,0,0,0,0,0],"trees":[{"base_weights":[-3.8873774E-1,-9.7110176E-1,4.145165E0,1.8065264E0,-9.961789E-1,4.494063E0,-3.9820242E-1,3.116025E-1,4.404176E-2,-8.166154E-1,-1.2004986E0,3.852802E0,5.064265E0,-1.0415825E0,1.9581372E-2,1.542334E0,-5.729647E-1,-2.468315E-1,-1.1121908E0,-1.2146907E0,6.7713857E-1,5.089086E0,6.6101277E-1,5.2050848E-2,2.7835681E0,-3.288179E-3,-1.1091952E-2,-2.7199897E-3,2.4185413E-2,-9.547364E-3,2.1703742E-3,4.4630394E0,-6.846406E-1,-8.878663E-1,-1.215995E0,-1.2189674E-2,-6.013626E-1,2.6031343E-2,-9.1470415E-3,5.340604E-2,3.590876E0,-1.1472957E-2,3.328244E0,3.2729187E0,8.987794E-3,5.0830994E-2,2.118374E-2,-9.858385E-3,5.4870616E-3,-5.1942603E-3,-1.1777405E-2,-1.3351861E-3,-1.2187691E-2,7.0580314E-3,-1.0043644E-2,2.0311143E-2,4.3514285E-2,3.8128987E-2,-6.2342593E-3,1.0107713E-2,3.7451506E-2],"categories":[0,1,2,3,5,6,7,8,10,11,13,14,15,16,17,18,20,21,22,23,24,25,26,27,28,29,30,31,32,33,34,37,38,40,41,42,43,44,45,46,47,48,49,50,51,52,53,54,55,56,57,58,59,61,63,64,65,66,67,68,69,70,72,73,74,76,77,79,80,81,82,83,84,85,86,87,88,89,90,91,92,93,94,95,96,97,98,99,100,101,102,103,104,105,106,107,108,109,110,111,112,113,114,115,116,117,118,119,120,121,122,123,124,126,127,128,129,130,131,132,133,134,135,136,137,138,139,140,141,142,143,144,147,148,149,150,151,152,153,154,155,156,157,158,159,160,161,163,164,165,166,168,169,170,171,172,173,174,175,1,2,3,5,7,9,10,13,0,1,2,3,4,5,6,7,8,10,11,13,14,15,16,17,18,19,20,21,22,23,24,25,26,27,28,29,30,31,32,33,34,35,36,37,38,39,40,41,42,43,44,45,46,47,48,49,50,51,52,53,54,55,56,57,58,59,60,61,63,64,65,66,67,68,69,70,71,72,73,74,75,76,77,78,79,80,81,82,83,84,85,86,87,88,89,90,91,92,93,94,95,96,97,98,99,100,101,102,103,104,105,106,107,108,109,110,111,112,113,114,115,116,117,118,119,120,121,122,123,124,125,126,127,128,129,130,131,132,133,134,135,136,137,138,139,140,141,142,143,144,145,146,147,148,149,150,151,152,153,154,155,156,157,158,159,160,161,162,163,164,165,166,167,168,169,170,171,172,173,174,175,0,4,6,8,11,12,1,2,3,5,7,8,9,10,11,12,13,0,1,2,3,4,5,6,7,8,9,10,11,12,13,14,15,16,17,18,19,20,21,22,23,24,25,26,27,28,29,30,31,32,33,34,35,36,37,38,39,40,41,42,43,44,45,46,47,48,49,50,51,52,53,54,55,56,57,58,59,60,61,62,63,64,65,66,67,68,69,70,71,72,73,74,75,76,77,78,79,80,81,82,83,84,85,86,87,88,89,90,91,92,93,94,95,96,97,98,99,100,101,102,103,104,105,106,107,108,109,110,111,112,113,114,115,116,117,118,119,120,121,122,123,124,125,126,127,128,129,130,131,132,133,134,135,136,137,138,139,140,141,142,143,144,145,146,0,1,2,3,4,5,6,7,8,9,1,5,7,9,10,13,2,3,5,7,0,1,2,3,4,5,7,8,9,10,11,12,0,1,2,3,5,6,7,8,9,10,11,12,13,0,1,2,3,4,5,6,7,8,9,10,11,12,13,14,15,16,17,18,19,20,21,22,23,24,25,26,27,28,29,30,31,32,33,34,35,36,37,38,39,40,41,42,43,44,45,0,1,3,4,5,6,7,8,9,10,11,12,13,0,2,5,8,18,21,23,25,28,33,34,38,40,41,43,45,49,54,58,65,66,67,69,77,80,82,84,85,87,95,97,99,100,101,102,107,111,112,116,124,130,133,136,140,142,143,153,154,157,158,159,160,0,1,2,3,4,5,7,8,9,10,11,12,11,0,1,2,3,4,5,6,7,8,9,10,11,12,13,14,15,16,17,18,19,20,21,22,23,24,25,26,27,28,29,30,31,32,33,34,35,36,37,38,39,40,41,42,43,44,45,46,47,48,49,50,51,52,53,54,55,56,57,58,59,60,61,62,63,64,65,66,67,68,69,70,71,72,73,74,75,76,77,78,79,80,81,82,83,84,85,86,87,88,89,90,91,92,93,94,95,96,97,98,99,100,101,102,103,104,105,106,107,108,109,110,111,112,113,114,115,116,117,118,119,120,121,122,123,124,125,126,127,128,129,130,131,132,133,134,135,136,137,138],"categories_nodes":[1,2,3,4,11,13,15,17,18,20,21,24,31,33,36,42,43],"categories_segments":[0,159,167,340,346,357,504,514,520,524,536,549,595,608,660,672,673],"categories_sizes":[159,8,173,6,11,147,10,6,4,12,13,46,13,52,12,1,139],"default_left":[0,0,1,0,1,0,0,0,0,0,0,1,0,0,0,1,0,1,1,0,1,1,0,0,1,0,0,0,0,0,0,1,0,1,0,0,1,0,0,0,0,0,1,0,0,0,0,0,0,0,0,0,0,0,0,0,0,0,0,0,0],"id":0,"left_children":[1,3,5,7,9,11,13,15,-1,17,19,21,23,25,-1,27,29,31,33,35,37,39,41,-1,43,-1,-1,-1,-1,-1,-1,45,47,49,51,-1,53,-1,-1,-1,55,-1,57,59,-1,-1,-1,-1,-1,-1,-1,-1,-1,-1,-1,-1,-1,-1,-1,-1,-1],"loss_changes":[4.525518E3,1.0755884E2,3.1107227E2,5.276324E1,5.4249878E1,4.6771973E1,2.452689E1,1.1688256E1,0E0,1.3519147E2,1.9529785E1,3.4980786E2,1.5307617E1,2.2825336E-1,0E0,7.6861944E0,2.168671E0,5.722282E2,1.1246338E1,1.095459E0,2.0495941E1,5.0770264E0,1.2988475E2,0E0,4.0170135E0,0E0,0E0,0E0,0E0,0E0,0E0,2.3555573E1,9.468073E1,1.7668594E1,9.1589355E-1,0E0,4.2915754E0,0E0,0E0,0E0,5.758301E0,0E0,2.3093834E1,2.2085495E0,0E0,0E0,0E0,0E0,0E0,0E0,0E0,0E0,0E0,0E0,0E0,0E0,0E0,0E0,0E0,0E0,0E0],"parents":[2147483647,0,0,1,1,2,2,3,3,4,4,5,5,6,6,7,7,9,9,10,10,11,11,12,12,13,13,15,15,16,16,17,17,18,18,19,19,20,20,21,21,22,22,24,24,31,31,32,32,33,33,34,34,36,36,40,40,42,42,43,43],"right_children":[2,4,6,8,10,12,14,16,-1,18,20,22,24,26,-1,28,30,32,34,36,38,40,42,-1,44,-1,-1,-1,-1,-1,-1,46,48,50,52,-1,54,-1,-1,-1,56,-1,58,60,-1,-1,-1,-1,-1,-1,-1,-1,-1,-1,-1,-1,-1,-1,-1,-1,-1],"split_conditions":[2.4804E2,NaN,NaN,NaN,NaN,7.3887E2,6.7444E2,2.302E1,4.404176E-2,2.424E1,2.3356E2,NaN,1.1459E3,NaN,1.9581372E-2,NaN,9.823E1,NaN,NaN,2.2011E2,NaN,NaN,5.8075E2,5.2050848E-2,NaN,-3.288179E-3,-1.1091952E-2,-2.7199897E-3,2.4185413E-2,-9.547364E-3,2.1703742E-3,NaN,1.73E1,NaN,2.495E1,-1.2189674E-2,NaN,2.6031343E-2,-9.1470415E-3,5.340604E-2,3.6586E2,-1.1472957E-2,NaN,NaN,8.987794E-3,5.0830994E-2,2.118374E-2,-9.858385E-3,5.4870616E-3,-5.1942603E-3,-1.1777405E-2,-1.3351861E-3,-1.2187691E-2,7.0580314E-3,-1.0043644E-2,2.0311143E-2,4.3514285E-2,3.8128987E-2,-6.2342593E-3,1.0107713E-2,3.7451506E-2],"split_indices":[0,3,2,3,2,0,0,0,0,0,0,2,0,3,0,2,0,2,2,0,2,2,0,0,1,0,0,0,0,0,0,2,0,3,0,0,2,0,0,0,0,0,2,1,0,0,0,0,0,0,0,0,0,0,0,0,0,0,0,0,0],"split_type":[0,1,1,1,1,0,0,0,0,0,0,1,0,1,0,1,0,1,1,0,1,1,0,0,1,0,0,0,0,0,0,1,0,1,0,0,1,0,0,0,0,0,1,1,0,0,0,0,0,0,0,0,0,0,0,0,0,0,0,0,0],"sum_hessian":[1.7114391E3,1.5173292E3,1.9410985E2,1.2940657E1,1.5043885E3,1.8027673E2,1.3833116E1,8.924591E0,4.016066E0,8.0336194E2,7.010266E2,8.85022E1,9.177454E1,1.13044815E1,2.528634E0,3.4210932E0,5.5034976E0,2.7502615E2,5.2833575E2,6.961181E2,4.908525E0,6.3364597E1,2.5137598E1,8.522984E1,6.5447E0,1.4874318E0,9.81705E0,1.3386886E0,2.0824046E0,3.5698364E0,1.9336613E0,2.2608963E1,2.5241718E2,1.701622E2,3.5817358E2,6.9031714E2,5.800984E0,1.9336613E0,2.9748635E0,5.2060112E1,1.13044815E1,1.5320548E1,9.81705E0,4.6110387E0,1.9336613E0,1.6956722E1,5.6522408E0,2.0303444E2,4.9382736E1,7.615651E1,9.400569E1,1.0412023E0,3.571324E2,1.1899455E0,4.6110387E0,4.908525E0,6.395957E0,8.775847E0,1.0412023E0,1.3386886E0,3.27235E0],"tree_param":{"num_deleted":"0","num_feature":"4","num_nodes":"61","size_leaf_vector":"1"}},{"base_weights":[-3.857675E-1,-9.6738887E-1,4.0016184E0,1.7766455E0,-9.925426E-1,4.3291893E0,-3.950029E-1,3.095191E-1,4.272214E-2,-8.126972E-1,-1.1976813E0,4.8127398E-2,3.658887E0,-1.0384728E0,1.9267833E-2,1.5214227E0,-5.700514E-1,-2.4461561E-1,-1.1089686E0,-1.2119552E0,6.714591E-1,4.8922367E0,3.1541135E0,-3.272632E-3,-1.1062447E-2,-2.7071158E-3,2.3773074E-2,-9.51815E-3,2.154097E-3,4.306455E0,-6.8079394E-1,-8.8405025E-1,-1.2132701E0,-1.2162545E-2,-5.979314E-1,2.5578443E-2,-9.118479E-3,1.5606132E-2,5.0140604E-2,1.4771588E-1,4.2772875E0,4.884518E-2,2.0764265E-2,-9.821862E-3,5.414644E-3,-5.1599056E-3,-1.174835E-2,-1.3289548E-3,-1.2160588E-2,7.002492E-3,-1.0013927E-2,2.6128573E-2,-1.1210476E-2,4.501115E-2,1.1460029E-2],"categories":[0,1,2,3,5,6,7,8,10,11,13,14,15,16,17,18,20,21,22,23,24,25,26,27,28,29,30,31,32,33,34,37,38,40,41,42,43,44,45,46,47,48,49,50,51,52,53,54,55,56,57,58,59,61,63,64,65,66,67,68,69,70,72,73,74,76,77,79,80,81,82,83,84,85,86,87,88,89,90,91,92,93,94,95,96,97,98,99,100,101,102,103,104,105,106,107,108,109,110,111,112,113,114,115,116,117,118,119,120,121,122,123,124,126,127,128,129,130,131,132,133,134,135,136,137,138,139,140,141,142,143,144,147,148,149,150,151,152,153,154,155,156,157,158,159,160,161,163,164,165,166,168,169,170,171,172,173,174,175,1,2,3,5,7,9,10,13,0,1,2,3,4,5,6,7,8,10,11,13,14,15,16,17,18,19,20,21,22,23,24,25,26,27,28,29,30,31,32,33,34,35,36,37,38,39,40,41,42,43,44,45,46,47,48,49,50,51,52,53,54,55,56,57,58,59,60,61,63,64,65,66,67,68,69,70,71,72,73,74,75,76,77,78,79,80,81,82,83,84,85,86,87,88,89,90,91,92,93,94,95,96,97,98,99,100,101,102,103,104,105,106,107,108,109,110,111,112,113,114,115,116,117,118,119,120,121,122,123,124,125,126,127,128,129,130,131,132,133,134,135,136,137,138,139,140,141,142,143,144,145,146,147,148,149,150,151,152,153,154,155,156,157,158,159,160,161,162,163,164,165,166,167,168,169,170,171,172,173,174,175,0,4,6,8,11,12,1,3,5,6,8,9,10,12,13,15,19,20,21,22,23,24,25,27,28,32,34,36,37,39,41,43,45,47,48,49,51,52,53,54,55,57,59,61,65,66,69,70,72,74,75,76,77,78,79,80,81,83,87,88,89,90,91,95,96,98,99,100,104,105,106,107,108,109,110,113,114,115,116,117,118,119,120,122,123,124,126,128,130,131,135,138,139,144,146,147,148,149,151,153,154,155,157,159,160,161,0,1,2,3,5,6,7,8,9,10,11,12,13,0,1,2,3,4,5,6,7,8,9,10,11,12,13,14,15,16,17,18,19,20,21,22,23,24,25,26,27,28,29,30,31,32,33,34,35,36,37,38,39,40,41,42,43,44,45,46,47,48,49,50,51,52,53,54,55,56,57,58,59,60,61,62,63,64,65,66,67,68,69,70,71,72,73,74,75,76,77,78,79,80,81,82,83,84,85,86,87,88,89,90,91,92,93,94,95,96,97,98,99,100,101,102,103,104,105,106,107,108,109,110,111,112,113,114,115,116,117,118,119,120,121,122,123,124,125,126,127,128,129,130,131,132,133,134,135,136,137,138,139,140,141,142,143,144,145,146,0,1,2,3,4,5,6,7,8,9,1,5,7,9,10,13,2,3,5,7,0,1,2,3,4,5,7,8,9,10,11,12,0,1,3,4,5,6,7,8,9,10,11,12,13,0,2,5,8,18,21,23,25,28,33,34,38,40,41,43,45,49,54,58,65,66,67,69,77,80,82,84,85,87,95,97,99,100,101,102,107,111,112,116,124,130,133,136,140,142,143,153,154,157,158,159,160,0,1,2,3,4,5,7,8,9,10,11,12,8,11,12],"categories_nodes":[1,2,3,4,5,12,13,15,17,18,20,29,31,34,39],"categories_segments":[0,159,167,340,346,446,459,606,616,622,626,638,651,703,715],"categories_sizes":[159,8,173,6,100,13,147,10,6,4,12,13,52,12,3],"default_left":[0,0,1,0,1,0,0,0,0,0,0,0,1,0,0,1,0,1,1,0,1,0,0,0,0,0,0,0,0,1,0,1,0,0,1,0,0,0,0,1,0,0,0,0,0,0,0,0,0,0,0,0,0,0,0],"id":1,"left_children":[1,3,5,7,9,11,13,15,-1,17,19,-1,21,23,-1,25,27,29,31,33,35,37,39,-1,-1,-1,-1,-1,-1,41,43,45,47,-1,49,-1,-1,-1,-1,51,53,-1,-1,-1,-1,-1,-1,-1,-1,-1,-1,-1,-1,-1,-1],"loss_changes":[4.362379E3,1.0591174E2,2.8992017E2,5.017188E1,5.421289E1,4.2783447E1,2.4100649E1,1.1457963E1,0E0,1.3440155E2,1.9400818E1,0E0,3.577832E1,2.2755527E-1,0E0,7.4706087E0,2.1494746E0,5.49926E2,1.1257874E1,1.098877E0,2.0023714E1,1.1339111E0,2.0596143E2,0E0,0E0,0E0,0E0,0E0,0E0,2.110022E1,9.3480125E1,1.7610367E1,9.1223145E-1,0E0,4.250724E0,0E0,0E0,0E0,0E0,5.8214695E1,2.6034302E1,0E0,0E0,0E0,0E0,0E0,0E0,0E0,0E0,0E0,0E0,0E0,0E0,0E0,0E0],"parents":[2147483647,0,0,1,1,2,2,3,3,4,4,5,5,6,6,7,7,9,9,10,10,12,12,13,13,15,15,16,16,17,17,18,18,19,19,20,20,21,21,22,22,29,29,30,30,31,31,32,32,34,34,39,39,40,40],"right_children":[2,4,6,8,10,12,14,16,-1,18,20,-1,22,24,-1,26,28,30,32,34,36,38,40,-1,-1,-1,-1,-1,-1,42,44,46,48,-1,50,-1,-1,-1,-1,52,54,-1,-1,-1,-1,-1,-1,-1,-1,-1,-1,-1,-1,-1,-1],"split_conditions":[2.4804E2,NaN,NaN,NaN,NaN,NaN,6.7444E2,2.302E1,4.272214E-2,2.424E1,2.3356E2,4.8127398E-2,NaN,NaN,1.9267833E-2,NaN,9.823E1,NaN,NaN,2.2011E2,NaN,2.6957E2,5.8075E2,-3.272632E-3,-1.1062447E-2,-2.7071158E-3,2.3773074E-2,-9.51815E-3,2.154097E-3,NaN,1.73E1,NaN,2.495E1,-1.2162545E-2,NaN,2.5578443E-2,-9.118479E-3,1.5606132E-2,5.0140604E-2,NaN,1.1459E3,4.884518E-2,2.0764265E-2,-9.821862E-3,5.414644E-3,-5.1599056E-3,-1.174835E-2,-1.3289548E-3,-1.2160588E-2,7.002492E-3,-1.0013927E-2,2.6128573E-2,-1.1210476E-2,4.501115E-2,1.1460029E-2],"split_indices":[0,3,2,3,2,1,0,0,0,0,0,0,2,3,0,2,0,2,2,0,2,0,0,0,0,0,0,0,0,2,0,3,0,0,2,0,0,0,0,2,0,0,0,0,0,0,0,0,0,0,0,0,0,0,0],"split_type":[0,1,1,1,1,1,0,0,0,0,0,0,1,1,0,1,0,1,1,0,1,0,0,0,0,0,0,0,0,1,0,1,0,0,1,0,0,0,0,1,0,0,0,0,0,0,0,0,0,0,0,0,0,0,0],"sum_hessian":[1.7070146E3,1.5078971E3,1.9911746E2,1.3064409E1,1.4948328E3,1.8532513E2,1.3792333E1,8.935388E0,4.1290216E0,7.9916504E2,6.9566766E2,1.0406998E2,8.125516E1,1.1232136E1,2.5601962E0,3.4508917E0,5.4844956E0,2.7455292E2,5.246121E2,6.907443E2,4.923323E0,2.107329E1,6.0181866E1,1.48432E0,9.747816E0,1.3363718E0,2.11452E0,3.548163E0,1.9363327E0,2.323601E1,2.5131693E2,1.6920665E2,3.554055E2,6.8496747E2,5.7768836E0,1.9657634E0,2.9575596E0,1.2305571E0,1.9842733E1,1.667621E1,4.3505657E1,1.7507435E1,5.7285748E0,2.0176166E2,4.955526E1,7.5904854E1,9.3301796E1,1.0403177E0,3.5436514E2,1.1952935E0,4.58159E0,5.306528E0,1.1369681E1,4.0195007E1,3.3106494E0],"tree_param":{"num_deleted":"0","num_feature":"4","num_nodes":"55","size_leaf_vector":"1"}},{"base_weights":[-3.828766E-1,-9.637148E-1,3.867819E0,1.7476954E0,-9.8894376E-1,4.1761723E0,-3.918482E-1,3.0743062E-1,4.1482333E-2,-8.088187E-1,-1.1949017E0,4.7124E-2,3.6256151E0,-1.0353868E0,1.8962523E-2,1.50095E0,-5.671574E-1,-2.4243629E-1,-1.105775E0,-1.2092574E0,6.658182E-1,2.9167645E0,4.3384175E0,-3.2571568E-3,-1.1033213E-2,-2.6943025E-3,2.3372717E-2,-9.489126E-3,2.1379513E-3,4.161366E0,-6.7696905E-1,-8.8025236E-1,-1.2105831E0,-1.2135796E-2,-5.9452605E-1,2.5139136E-2,-9.090091E-3,4.4254074E0,1.22743614E-1,4.5517743E-2,1.4044367E0,4.7023006E-2,2.0359209E-2,-9.785526E-3,5.343466E-3,-5.1257075E-3,-1.1719628E-2,-1.3227523E-3,-1.2133867E-2,6.947469E-3,-9.984421E-3,4.752563E-2,3.0556655E-2,-1.1246964E-2,2.305984E-2,2.0444341E-2,2.6806123E-3],"categories":[0,1,2,3,5,6,7,8,10,11,13,14,15,16,17,18,20,21,22,23,24,25,26,27,28,29,30,31,32,33,34,37,38,40,41,42,43,44,45,46,47,48,49,50,51,52,53,54,55,56,57,58,59,61,63,64,65,66,67,68,69,70,72,73,74,76,77,79,80,81,82,83,84,85,86,87,88,89,90,91,92,93,94,95,96,97,98,99,100,101,102,103,104,105,106,107,108,109,110,111,112,113,114,115,116,117,118,119,120,121,122,123,124,126,127,128,129,130,131,132,133,134,135,136,137,138,139,140,141,142,143,144,147,148,149,150,151,152,153,154,155,156,157,158,159,160,161,163,164,165,166,168,169,170,171,172,173,174,175,1,2,3,5,7,9,10,13,0,1,2,3,4,5,6,7,8,10,11,13,14,15,16,17,18,19,20,21,22,23,24,25,26,27,28,29,30,31,32,33,34,35,36,37,38,39,40,41,42,43,44,45,46,47,48,49,50,51,52,53,54,55,56,57,58,59,60,61,63,64,65,66,67,68,69,70,71,72,73,74,75,76,77,78,79,80,81,82,83,84,85,86,87,88,89,90,91,92,93,94,95,96,97,98,99,100,101,102,103,104,105,106,107,108,109,110,111,112,113,114,115,116,117,118,119,120,121,122,123,124,125,126,127,128,129,130,131,132,133,134,135,136,137,138,139,140,141,142,143,144,145,146,147,148,149,150,151,152,153,154,155,156,157,158,159,160,161,162,163,164,165,166,167,168,169,170,171,172,173,174,175,0,4,6,8,11,12,1,3,5,6,7,8,9,10,12,13,14,15,19,20,21,22,23,24,25,27,28,29,32,34,36,37,39,41,43,45,47,48,49,51,52,53,54,55,57,59,61,65,66,69,70,72,74,75,76,77,78,79,80,81,82,83,84,86,87,88,89,90,91,95,96,98,99,100,104,105,106,107,108,109,110,113,114,115,116,117,118,119,120,122,123,124,125,126,128,129,130,131,135,138,139,141,144,146,147,148,149,151,153,154,155,157,159,160,161,0,1,2,3,4,5,6,7,8,9,10,11,12,13,14,15,16,17,18,19,20,21,22,23,24,25,26,27,28,29,30,31,32,33,34,35,36,37,38,39,40,41,42,43,44,45,46,47,48,49,50,51,52,53,54,55,56,57,58,59,60,61,62,63,64,65,66,67,68,69,70,71,72,73,74,75,76,77,78,79,80,81,82,83,84,85,86,87,88,89,90,91,92,93,94,95,96,97,98,99,100,101,102,103,104,105,106,107,108,109,110,111,112,113,114,115,116,117,118,119,120,121,122,123,124,125,126,127,128,129,130,131,132,133,134,135,136,137,138,139,140,141,142,143,144,145,146,0,1,2,3,4,5,6,7,8,9,1,5,7,9,10,13,2,3,5,7,0,1,2,3,4,5,7,8,9,10,11,12,1,2,3,5,7,8,9,10,11,12,13,0,1,3,4,5,6,7,8,9,10,11,12,13,0,2,5,8,18,21,23,25,28,33,34,38,40,41,43,45,49,54,58,65,66,67,69,77,80,82,84,85,87,95,97,99,100,101,102,107,111,112,116,124,130,133,136,140,142,143,153,154,157,158,159,160,0,1,2,3,4,5,7,8,9,10,11,12,0,1,2,3,5,6,7,8,9,10,11,12,13,0,1,2,3,4,5,6,7,8,9,10,12,13],"categories_nodes":[1,2,3,4,5,13,15,17,18,20,21,29,31,34,37,40],"categories_segments":[0,159,167,340,346,455,602,612,618,622,634,645,658,710,722,735],"categories_sizes":[159,8,173,6,109,147,10,6,4,12,11,13,52,12,13,13],"default_left":[0,0,1,0,1,0,0,0,0,0,0,0,0,0,0,1,0,1,1,0,1,1,0,0,0,0,0,0,0,1,0,1,0,0,1,0,0,1,0,0,1,0,0,0,0,0,0,0,0,0,0,0,0,0,0,0,0],"id":2,"left_children":[1,3,5,7,9,11,13,15,-1,17,19,-1,21,23,-1,25,27,29,31,33,35,37,39,-1,-1,-1,-1,-1,-1,41,43,45,47,-1,49,-1,-1,51,53,-1,55,-1,-1,-1,-1,-1,-1,-1,-1,-1,-1,-1,-1,-1,-1,-1,-1],"loss_changes":[4.209553E3,1.04302246E2,2.7088525E2,4.776831E1,5.4172607E1,3.937207E1,2.3684618E1,1.1233124E1,0E0,1.3360693E2,1.9271973E1,0E0,3.721277E1,2.268858E-1,0E0,7.2632494E0,2.1304727E0,5.291807E2,1.1270447E1,1.1022949E0,1.9566628E1,2.2090417E2,2.3127686E1,0E0,0E0,0E0,0E0,0E0,0E0,1.8989838E1,9.229733E1,1.7553116E1,9.086304E-1,0E0,4.2102847E0,0E0,0E0,7.525635E-1,5.5562454E1,0E0,2.8287592E0,0E0,0E0,0E0,0E0,0E0,0E0,0E0,0E0,0E0,0E0,0E0,0E0,0E0,0E0,0E0,0E0],"parents":[2147483647,0,0,1,1,2,2,3,3,4,4,5,5,6,6,7,7,9,9,10,10,12,12,13,13,15,15,16,16,17,17,18,18,19,19,20,20,21,21,22,22,29,29,30,30,31,31,32,32,34,34,37,37,38,38,40,40],"right_children":[2,4,6,8,10,12,14,16,-1,18,20,-1,22,24,-1,26,28,30,32,34,36,38,40,-1,-1,-1,-1,-1,-1,42,44,46,48,-1,50,-1,-1,52,54,-1,56,-1,-1,-1,-1,-1,-1,-1,-1,-1,-1,-1,-1,-1,-1,-1,-1],"split_conditions":[2.4804E2,NaN,NaN,NaN,NaN,NaN,6.7444E2,2.302E1,4.1482333E-2,2.424E1,2.3356E2,4.7124E-2,7.3887E2,NaN,1.8962523E-2,NaN,9.823E1,NaN,NaN,2.2011E2,NaN,NaN,1.1459E3,-3.2571568E-3,-1.1033213E-2,-2.6943025E-3,2.3372717E-2,-9.489126E-3,2.1379513E-3,NaN,1.73E1,NaN,2.495E1,-1.2135796E-2,NaN,2.5139136E-2,-9.090091E-3,NaN,5.8075E2,4.5517743E-2,NaN,4.7023006E-2,2.0359209E-2,-9.785526E-3,5.343466E-3,-5.1257075E-3,-1.1719628E-2,-1.3227523E-3,-1.2133867E-2,6.947469E-3,-9.984421E-3,4.752563E-2,3.0556655E-2,-1.1246964E-2,2.305984E-2,2.0444341E-2,2.6806123E-3],"split_indices":[0,3,2,3,2,1,0,0,0,0,0,0,0,3,0,2,0,2,2,0,2,2,0,0,0,0,0,0,0,2,0,3,0,0,2,0,0,2,0,0,2,0,0,0,0,0,0,0,0,0,0,0,0,0,0,0,0],"split_type":[0,1,1,1,1,1,0,0,0,0,0,0,0,1,0,1,0,1,1,0,1,1,0,0,0,0,0,0,0,1,0,1,0,0,1,0,0,1,0,0,1,0,0,0,0,0,0,0,0,0,0,0,0,0,0,0,0],"sum_hessian":[1.7024762E3,1.4984879E3,2.0398827E2,1.318507E1,1.4853029E3,1.902368E2,1.37514715E1,8.945846E0,4.2392244E0,7.9497095E2,6.903319E2,9.254308E1,9.769372E1,1.1160127E1,2.591345E0,3.4802675E0,5.465578E0,2.740651E2,5.209058E2,6.853941E2,4.9377646E0,5.153569E1,4.615803E1,1.4812245E0,9.678902E0,1.3340669E0,2.1462007E0,3.5265932E0,1.9389849E0,2.3843622E1,2.5022148E2,1.6825624E2,3.526496E2,6.7964124E2,5.7528877E0,1.9974277E0,2.9403372E0,3.3086575E1,1.8449116E1,4.251497E1,3.6430597E0,1.8039988E1,5.8036346E0,2.0049582E2,4.9725666E1,7.565511E1,9.260112E1,1.0394373E0,3.5161017E2,1.2006058E0,4.552282E0,2.4714071E1,8.372502E0,1.2049329E1,6.3997865E0,1.8193394E0,1.8237205E0],"tree_param":{"num_deleted":"0","num_feature":"4","num_nodes":"57","size_leaf_vector":"1"}},{"base_weights":[-3.80031E-1,-9.600789E-1,3.7440472E0,1.7196413E0,-9.8538154E-1,4.0351806E0,-3.8873747E-1,3.0533814E-1,4.031572E-2,-8.049791E-1,-1.1921594E0,4.5766328E-2,3.5124176E0,-1.032324E0,1.8665144E-2,1.4809046E0,-5.6428266E-1,-2.4029239E-1,-1.1026095E0,-1.2065969E0,6.6021824E-1,2.819098E0,4.2097554E0,-3.2417553E-3,-1.1004248E-2,-2.681551E-3,2.2983883E-2,-9.460287E-3,2.1219358E-3,4.026558E0,-6.731656E-1,-8.764724E-1,-1.2079333E0,-1.2109425E-2,-5.911463E-1,2.471291E-2,-9.061877E-3,4.2657566E0,7.899484E-2,4.4021968E-2,1.5061758E0,4.5345206E-2,1.9967845E-2,-9.749373E-3,5.2735E-3,-5.091665E-3,-1.1691234E-2,-1.316579E-3,-1.21075185E-2,6.892954E-3,-9.955119E-3,4.59012E-2,2.9082427E-2,-1.1246485E-2,2.1151513E-2,2.171734E-2,2.6604002E-3],"categories":[0,1,2,3,5,6,7,8,10,11,13,14,15,16,17,18,20,21,22,23,24,25,26,27,28,29,30,31,32,33,34,37,38,40,41,42,43,44,45,46,47,48,49,50,51,52,53,54,55,56,57,58,59,61,63,64,65,66,67,68,69,70,72,73,74,76,77,79,80,81,82,83,84,85,86,87,88,89,90,91,92,93,94,95,96,97,98,99,100,101,102,103,104,105,106,107,108,109,110,111,112,113,114,115,116,117,118,119,120,121,122,123,124,126,127,128,129,130,131,132,133,134,135,136,137,138,139,140,141,142,143,144,147,148,149,150,151,152,153,154,155,156,157,158,159,160,161,163,164,165,166,168,169,170,171,172,173,174,175,1,2,3,5,7,9,10,13,0,1,2,3,4,5,6,7,8,10,11,13,14,15,16,17,18,19,20,21,22,23,24,25,26,27,28,29,30,31,32,33,34,35,36,37,38,39,40,41,42,43,44,45,46,47,48,49,50,51,52,53,54,55,56,57,58,59,60,61,63,64,65,66,67,68,69,70,71,72,73,74,75,76,77,78,79,80,81,82,83,84,85,86,87,88,89,90,91,92,93,94,95,96,97,98,99,100,101,102,103,104,105,106,107,108,109,110,111,112,113,114,115,116,117,118,119,120,121,122,123,124,125,126,127,128,129,130,131,132,133,134,135,136,137,138,139,140,141,142,143,144,145,146,147,148,149,150,151,152,153,154,155,156,157,158,159,160,161,162,163,164,165,166,167,168,169,170,171,172,173,174,175,0,4,6,8,11,12,1,3,5,6,7,8,9,10,12,13,14,15,19,20,21,22,23,24,25,27,28,29,32,34,36,37,39,41,43,45,47,48,49,51,52,53,54,55,57,59,61,65,66,69,70,72,74,75,76,77,78,79,80,81,82,83,84,86,87,88,89,90,91,95,96,98,99,100,102,104,105,106,107,108,109,110,113,114,115,116,117,118,119,120,122,123,124,125,126,128,129,130,131,135,138,139,141,144,146,147,148,149,151,153,154,155,157,159,160,161,0,1,2,3,4,5,6,7,8,9,10,11,12,13,14,15,16,17,18,19,20,21,22,23,24,25,26,27,28,29,30,31,32,33,34,35,36,37,38,39,40,41,42,43,44,45,46,47,48,49,50,51,52,53,54,55,56,57,58,59,60,61,62,63,64,65,66,67,68,69,70,71,72,73,74,75,76,77,78,79,80,81,82,83,84,85,86,87,88,89,90,91,92,93,94,95,96,97,98,99,100,101,102,103,104,105,106,107,108,109,110,111,112,113,114,115,116,117,118,119,120,121,122,123,124,125,126,127,128,129,130,131,132,133,134,135,136,137,138,139,140,141,142,143,144,145,146,0,1,2,3,4,5,6,7,8,9,1,5,7,9,10,13,2,3,5,7,0,1,2,3,4,5,7,8,9,10,11,12,1,2,3,5,7,8,9,10,11,12,13,0,1,3,4,5,6,7,8,9,10,11,12,13,0,2,5,8,18,21,23,25,28,33,34,38,40,41,43,45,49,54,58,65,66,67,69,77,80,82,84,85,87,95,97,99,100,101,102,107,111,112,116,124,130,133,136,140,142,143,153,154,157,158,159,160,0,1,2,3,4,5,7,8,9,10,11,12,0,1,2,3,5,6,7,8,9,10,11,12,13,0,1,2,3,4,5,6,7,8,9,10,12,13],"categories_nodes":[1,2,3,4,5,13,15,17,18,20,21,29,31,34,37,40],"categories_segments":[0,159,167,340,346,456,603,613,619,623,635,646,659,711,723,736],"categories_sizes":[159,8,173,6,110,147,10,6,4,12,11,13,52,12,13,13],"default_left":[0,0,1,0,1,0,0,0,0,0,0,0,0,0,0,1,0,1,1,0,1,1,0,0,0,0,0,0,0,1,0,1,0,0,1,0,0,1,0,0,1,0,0,0,0,0,0,0,0,0,0,0,0,0,0,0,0],"id":3,"left_children":[1,3,5,7,9,11,13,15,-1,17,19,-1,21,23,-1,25,27,29,31,33,35,37,39,-1,-1,-1,-1,-1,-1,41,43,45,47,-1,49,-1,-1,51,53,-1,55,-1,-1,-1,-1,-1,-1,-1,-1,-1,-1,-1,-1,-1,-1,-1,-1],"loss_changes":[4.0673442E3,1.0272949E2,2.5384619E2,4.5535305E1,5.412964E1,3.9392822E1,2.3278456E1,1.1013598E1,0E0,1.3280786E2,1.914331E1,0E0,3.8415283E1,2.2624111E-1,0E0,7.0637302E0,2.1116643E0,5.0983002E2,1.1284058E1,1.1056519E0,1.9124094E1,2.1839145E2,1.9291992E1,0E0,0E0,0E0,0E0,0E0,0E0,1.7167358E1,9.113197E1,1.7496887E1,9.050293E-1,0E0,4.170251E0,0E0,0E0,2.5440063E0,5.1602985E1,0E0,3.4095755E0,0E0,0E0,0E0,0E0,0E0,0E0,0E0,0E0,0E0,0E0,0E0,0E0,0E0,0E0,0E0,0E0],"parents":[2147483647,0,0,1,1,2,2,3,3,4,4,5,5,6,6,7,7,9,9,10,10,12,12,13,13,15,15,16,16,17,17,18,18,19,19,20,20,21,21,22,22,29,29,30,30,31,31,32,32,34,34,37,37,38,38,40,40],"right_children":[2,4,6,8,10,12,14,16,-1,18,20,-1,22,24,-1,26,28,30,32,34,36,38,40,-1,-1,-1,-1,-1,-1,42,44,46,48,-1,50,-1,-1,52,54,-1,56,-1,-1,-1,-1,-1,-1,-1,-1,-1,-1,-1,-1,-1,-1,-1,-1],"split_conditions":[2.4804E2,NaN,NaN,NaN,NaN,NaN,6.7444E2,2.302E1,4.031572E-2,2.424E1,2.3356E2,4.5766328E-2,7.3887E2,NaN,1.8665144E-2,NaN,9.823E1,NaN,NaN,2.2011E2,NaN,NaN,1.1459E3,-3.2417553E-3,-1.1004248E-2,-2.681551E-3,2.2983883E-2,-9.460287E-3,2.1219358E-3,NaN,1.73E1,NaN,2.495E1,-1.2109425E-2,NaN,2.471291E-2,-9.061877E-3,NaN,5.8075E2,4.4021968E-2,NaN,4.5345206E-2,1.9967845E-2,-9.749373E-3,5.2735E-3,-5.091665E-3,-1.1691234E-2,-1.316579E-3,-1.21075185E-2,6.892954E-3,-9.955119E-3,4.59012E-2,2.9082427E-2,-1.1246485E-2,2.1151513E-2,2.171734E-2,2.6604002E-3],"split_indices":[0,3,2,3,2,1,0,0,0,0,0,0,0,3,0,2,0,2,2,0,2,2,0,0,0,0,0,0,0,2,0,3,0,0,2,0,0,2,0,0,2,0,0,0,0,0,0,0,0,0,0,0,0,0,0,0,0],"split_type":[0,1,1,1,1,1,0,0,0,0,0,0,0,1,0,1,0,1,1,0,1,1,0,0,0,0,0,0,0,1,0,1,0,0,1,0,0,1,0,0,1,0,0,0,0,0,0,0,0,0,0,0,0,0,0,0,0],"sum_hessian":[1.6977762E3,1.4891024E3,2.0867374E2,1.3302622E1,1.4757998E3,1.949632E2,1.3710539E1,8.955962E0,4.3466597E0,7.9078E2,6.850198E2,9.19604E1,1.0300279E2,1.1088458E1,2.6220813E0,3.5092175E0,5.4467444E0,2.7356308E2,5.17217E2,6.8006793E2,4.951844E0,5.417882E1,4.882397E1,1.4781456E0,9.610312E0,1.3317744E0,2.1774433E0,3.505126E0,1.9416182E0,2.4432169E1,2.491309E2,1.6731093E2,3.4990604E2,6.74339E2,5.7289953E0,2.0286472E0,2.9231973E0,3.509393E1,1.9084894E1,4.499307E1,3.830902E0,1.8554735E1,5.877434E0,1.9923692E2,4.989397E1,7.540724E1,9.190369E1,1.0385613E0,3.488675E2,1.2058822E0,4.5231133E0,2.6403757E1,8.690171E0,1.2275864E1,6.8090305E0,2.00412E0,1.826782E0],"tree_param":{"num_deleted":"0","num_feature":"4","num_nodes":"57","size_leaf_vector":"1"}},{"base_weights":[-3.7724125E-1,-9.5648026E-1,3.6288385E0,1.6924498E0,-9.818552E-1,3.9044259E0,-3.8566974E-1,3.03243E-1,3.921638E-2,-8.011775E-1,-1.1894534E0,4.413845E0,3.3621464E0,-1.0292836E0,1.8375413E-2,1.4612767E0,-5.6142694E-1,-2.3818275E-1,-1.0994716E0,-1.2039728E0,6.546606E-1,4.437937E-2,1.4611366E-2,4.425297E0,2.9241996E0,-3.2264271E-3,-1.0975542E-2,-2.6688592E-3,2.2606134E-2,-9.43163E-3,2.1060482E-3,3.9009807E0,-6.693833E-1,-8.7270993E-1,-1.2053201E0,-1.20834205E-2,-5.8779186E-1,2.4299255E-2,-9.033829E-3,1.1858677E-2,4.521246E-2,3.8342497E-1,3.85851E0,4.1161314E-2,6.3021504E-3,-9.713398E-3,5.204715E-3,-5.0577805E-3,-1.1663158E-2,-1.3104347E-3,-1.2081539E-2,6.838945E-3,-9.926021E-3,2.74283E-2,-1.1290756E-2,4.0255137E-2,9.362566E-3],"categories":[0,1,2,3,5,6,7,8,10,11,13,14,15,16,17,18,20,21,22,23,24,25,26,27,28,29,30,31,32,33,34,37,38,40,41,42,43,44,45,46,47,48,49,50,51,52,53,54,55,56,57,58,59,61,63,64,65,66,67,68,69,70,72,73,74,76,77,79,80,81,82,83,84,85,86,87,88,89,90,91,92,93,94,95,96,97,98,99,100,101,102,103,104,105,106,107,108,109,110,111,112,113,114,115,116,117,118,119,120,121,122,123,124,126,127,128,129,130,131,132,133,134,135,136,137,138,139,140,141,142,143,144,147,148,149,150,151,152,153,154,155,156,157,158,159,160,161,163,164,165,166,168,169,170,171,172,173,174,175,1,2,3,5,7,9,10,13,0,1,2,3,4,5,6,7,8,10,11,13,14,15,16,17,18,19,20,21,22,23,24,25,26,27,28,29,30,31,32,33,34,35,36,37,38,39,40,41,42,43,44,45,46,47,48,49,50,51,52,53,54,55,56,57,58,59,60,61,63,64,65,66,67,68,69,70,71,72,73,74,75,76,77,78,79,80,81,82,83,84,85,86,87,88,89,90,91,92,93,94,95,96,97,98,99,100,101,102,103,104,105,106,107,108,109,110,111,112,113,114,115,116,117,118,119,120,121,122,123,124,125,126,127,128,129,130,131,132,133,134,135,136,137,138,139,140,141,142,143,144,145,146,147,148,149,150,151,152,153,154,155,156,157,158,159,160,161,162,163,164,165,166,167,168,169,170,171,172,173,174,175,0,4,6,8,11,12,1,3,5,7,10,11,12,13,14,15,16,17,18,19,20,21,22,24,26,27,28,29,30,31,32,33,34,37,38,40,43,44,46,50,52,53,54,55,58,61,62,63,64,65,67,68,70,72,76,77,79,81,82,83,84,85,86,88,89,90,93,94,95,97,98,100,102,104,106,107,110,111,112,114,116,118,119,120,121,123,124,125,126,127,128,130,131,132,133,135,136,137,140,147,148,149,150,151,153,154,155,156,158,159,161,162,164,166,167,169,170,172,174,1,2,3,5,6,7,9,10,13,0,1,2,3,5,6,7,8,9,10,11,12,13,0,1,2,3,4,5,6,7,8,9,10,11,12,13,14,15,16,17,18,19,20,21,22,23,24,25,26,27,28,29,30,31,32,33,34,35,36,37,38,39,40,41,42,43,44,45,46,47,48,49,50,51,52,53,54,55,56,57,58,59,60,61,62,63,64,65,66,67,68,69,70,71,72,73,74,75,76,77,78,79,80,81,82,83,84,85,86,87,88,89,90,91,92,93,94,95,96,97,98,99,100,101,102,103,104,105,106,107,108,109,110,111,112,113,114,115,116,117,118,119,120,121,122,123,124,125,126,127,128,129,130,131,132,133,134,135,136,137,138,139,140,141,142,143,144,145,146,0,1,2,3,4,5,6,7,8,9,1,5,7,9,10,13,2,3,5,7,0,1,2,3,4,5,7,8,9,10,11,12,0,2,5,8,18,21,23,25,28,33,34,38,40,41,43,45,49,54,58,65,66,67,69,77,80,82,84,85,87,95,97,99,100,101,102,107,111,112,116,124,130,133,136,140,142,143,153,154,157,158,159,160,0,1,2,3,4,5,7,8,9,10,11,12,8,11,12],"categories_nodes":[1,2,3,4,5,11,12,13,15,17,18,20,33,36,41],"categories_segments":[0,159,167,340,346,459,468,481,628,638,644,648,660,712,724],"categories_sizes":[159,8,173,6,113,9,13,147,10,6,4,12,52,12,3],"default_left":[0,0,1,0,1,0,0,0,0,0,0,1,1,0,0,1,0,1,1,0,1,0,0,0,0,0,0,0,0,0,0,0,0,1,0,0,1,0,0,0,0,1,0,0,0,0,0,0,0,0,0,0,0,0,0,0,0],"id":4,"left_children":[1,3,5,7,9,11,13,15,-1,17,19,21,23,25,-1,27,29,31,33,35,37,-1,-1,39,41,-1,-1,-1,-1,-1,-1,43,45,47,49,-1,51,-1,-1,-1,-1,53,55,-1,-1,-1,-1,-1,-1,-1,-1,-1,-1,-1,-1,-1,-1],"loss_changes":[3.9342131E3,1.01191895E2,2.3847925E2,4.3457565E1,5.4083984E1,4.0554688E1,2.288184E1,1.0799257E1,0E0,1.3200504E2,1.9015076E1,6.431885E-1,3.423767E1,2.2562313E-1,0E0,6.871683E0,2.093045E0,4.9173337E2,1.129834E1,1.1090698E0,1.8695524E1,0E0,0E0,3.2214355E0,1.758786E2,0E0,0E0,0E0,0E0,0E0,0E0,1.5703796E1,8.9983665E1,1.744152E1,9.0164185E-1,0E0,4.130621E0,0E0,0E0,0E0,0E0,7.874244E1,2.2835938E1,0E0,0E0,0E0,0E0,0E0,0E0,0E0,0E0,0E0,0E0,0E0,0E0,0E0,0E0],"parents":[2147483647,0,0,1,1,2,2,3,3,4,4,5,5,6,6,7,7,9,9,10,10,11,11,12,12,13,13,15,15,16,16,17,17,18,18,19,19,20,20,23,23,24,24,31,31,32,32,33,33,34,34,36,36,41,41,42,42],"right_children":[2,4,6,8,10,12,14,16,-1,18,20,22,24,26,-1,28,30,32,34,36,38,-1,-1,40,42,-1,-1,-1,-1,-1,-1,44,46,48,50,-1,52,-1,-1,-1,-1,54,56,-1,-1,-1,-1,-1,-1,-1,-1,-1,-1,-1,-1,-1,-1],"split_conditions":[2.4804E2,NaN,NaN,NaN,NaN,NaN,6.7444E2,2.302E1,3.921638E-2,2.424E1,2.3356E2,NaN,NaN,NaN,1.8375413E-2,NaN,9.823E1,NaN,NaN,2.2011E2,NaN,4.437937E-2,1.4611366E-2,2.6957E2,5.8075E2,-3.2264271E-3,-1.0975542E-2,-2.6688592E-3,2.2606134E-2,-9.43163E-3,2.1060482E-3,2.246E1,1.73E1,NaN,2.495E1,-1.20834205E-2,NaN,2.4299255E-2,-9.033829E-3,1.1858677E-2,4.521246E-2,NaN,1.1459E3,4.1161314E-2,6.3021504E-3,-9.713398E-3,5.204715E-3,-5.0577805E-3,-1.1663158E-2,-1.3104347E-3,-1.2081539E-2,6.838945E-3,-9.926021E-3,2.74283E-2,-1.1290756E-2,4.0255137E-2,9.362566E-3],"split_indices":[0,3,2,3,2,3,0,0,0,0,0,2,2,3,0,2,0,2,2,0,2,0,0,0,0,0,0,0,0,0,0,0,0,3,0,0,2,0,0,0,0,2,0,0,0,0,0,0,0,0,0,0,0,0,0,0,0],"split_type":[0,1,1,1,1,1,0,0,0,0,0,1,1,1,0,1,0,1,1,0,1,0,0,0,0,0,0,0,0,0,0,0,0,1,0,0,1,0,0,0,0,1,0,0,0,0,0,0,0,0,0,0,0,0,0,0,0],"sum_hessian":[1.6929364E3,1.4797418E3,2.1319461E2,1.3417051E1,1.4663248E3,1.9952507E2,1.3669537E1,8.965733E0,4.4513183E0,7.865931E2,6.7973175E2,9.919835E1,1.0032673E2,1.1017134E1,2.6524036E0,3.5377371E0,5.427996E0,2.7304727E2,5.135458E2,6.747662E2,4.965557E0,9.789658E1,1.3017615E0,2.6614153E1,7.371257E1,1.4750829E0,9.54205E0,1.3294935E0,2.2082436E0,3.4837632E0,1.9442328E0,2.5002022E1,2.4804524E2,1.6637079E2,3.4717502E2,6.69061E2,5.7052083E0,2.0594172E0,2.9061399E0,1.1499221E0,2.5464231E1,2.0197538E1,5.3515034E1,2.321639E1,1.7856315E0,1.9798503E2,5.0060207E1,7.516124E1,9.120955E1,1.0376896E0,3.4613733E2,1.2111224E0,4.494086E0,7.5721006E0,1.2625438E1,5.026491E1,3.250124E0],"tree_param":{"num_deleted":"0","num_feature":"4","num_nodes":"57","size_leaf_vector":"1"}},{"base_weights":[-3.7451607E-1,-9.529207E-1,3.5210817E0,1.6660877E0,-9.7836626E-1,3.7825472E0,-3.8264424E-1,3.0114627E-1,3.8178958E-2,-7.974204E-1,-1.1867832E0,4.3050434E-2,3.2450192E0,-1.0262656E0,1.8093055E-2,1.442056E0,-5.585901E-1,-2.361545E-1,-1.0963604E0,-1.2013845E0,6.4914644E-1,4.290703E0,2.800209E0,-3.2111707E-3,-1.0947092E-2,-2.6562277E-3,2.2239054E-2,-9.403154E-3,2.090289E-3,3.7812643E0,-6.6562164E-1,-8.6896455E-1,-1.2027428E0,-1.20577775E-2,-5.8446246E-1,2.3897678E-2,-9.005951E-3,1.4275995E-2,4.374891E-2,2.4116696E-1,3.7124062E0,4.2503305E-2,1.8909918E-2,-9.677598E-3,5.137084E-3,-5.0240527E-3,-1.16353985E-2,-1.3043194E-3,-1.205592E-2,6.7854333E-3,-9.897121E-3,2.548718E-2,-1.1296333E-2,3.862959E-2,1.0728642E-2],"categories":[0,1,2,3,5,6,7,8,10,11,13,14,15,16,17,18,20,21,22,23,24,25,26,27,28,29,30,31,32,33,34,37,38,40,41,42,43,44,45,46,47,48,49,50,51,52,53,54,55,56,57,58,59,61,63,64,65,66,67,68,69,70,72,73,74,76,77,79,80,81,82,83,84,85,86,87,88,89,90,91,92,93,94,95,96,97,98,99,100,101,102,103,104,105,106,107,108,109,110,111,112,113,114,115,116,117,118,119,120,121,122,123,124,126,127,128,129,130,131,132,133,134,135,136,137,138,139,140,141,142,143,144,147,148,149,150,151,152,153,154,155,156,157,158,159,160,161,163,164,165,166,168,169,170,171,172,173,174,175,1,2,3,5,7,9,10,13,0,1,2,3,4,5,6,7,8,10,11,13,14,15,16,17,18,19,20,21,22,23,24,25,26,27,28,29,30,31,32,33,34,35,36,37,38,39,40,41,42,43,44,45,46,47,48,49,50,51,52,53,54,55,56,57,58,59,60,61,63,64,65,66,67,68,69,70,71,72,73,74,75,76,77,78,79,80,81,82,83,84,85,86,87,88,89,90,91,92,93,94,95,96,97,98,99,100,101,102,103,104,105,106,107,108,109,110,111,112,113,114,115,116,117,118,119,120,121,122,123,124,125,126,127,128,129,130,131,132,133,134,135,136,137,138,139,140,141,142,143,144,145,146,147,148,149,150,151,152,153,154,155,156,157,158,159,160,161,162,163,164,165,166,167,168,169,170,171,172,173,174,175,0,4,6,8,11,12,1,3,5,6,7,8,10,11,12,13,14,15,17,18,19,20,21,22,24,26,27,28,29,30,31,32,33,34,37,38,40,44,46,50,52,53,54,55,58,59,61,62,63,64,65,67,68,70,72,74,76,77,79,81,82,83,84,85,86,88,89,90,93,94,95,97,98,100,102,104,105,106,107,110,114,116,118,119,120,121,123,124,125,126,127,128,130,131,132,133,135,136,137,138,140,147,149,150,153,154,155,156,157,158,159,161,162,164,166,169,170,172,174,0,1,2,3,5,6,7,8,9,10,11,12,13,0,1,2,3,4,5,6,7,8,9,10,11,12,13,14,15,16,17,18,19,20,21,22,23,24,25,26,27,28,29,30,31,32,33,34,35,36,37,38,39,40,41,42,43,44,45,46,47,48,49,50,51,52,53,54,55,56,57,58,59,60,61,62,63,64,65,66,67,68,69,70,71,72,73,74,75,76,77,78,79,80,81,82,83,84,85,86,87,88,89,90,91,92,93,94,95,96,97,98,99,100,101,102,103,104,105,106,107,108,109,110,111,112,113,114,115,116,117,118,119,120,121,122,123,124,125,126,127,128,129,130,131,132,133,134,135,136,137,138,139,140,141,142,143,144,145,146,0,1,2,3,4,5,6,7,8,9,1,5,7,9,10,13,2,3,5,7,0,1,2,3,4,5,7,8,9,10,11,12,0,1,3,4,5,6,7,8,9,10,11,12,13,0,2,5,8,18,21,23,25,28,33,34,38,40,41,43,45,49,54,58,65,66,67,69,77,80,82,84,85,87,95,97,99,100,101,102,107,111,112,116,124,130,133,136,140,142,143,153,154,157,158,159,160,0,1,2,3,4,5,7,8,9,10,11,12,8,11,12],"categories_nodes":[1,2,3,4,5,12,13,15,17,18,20,29,31,34,39],"categories_segments":[0,159,167,340,346,459,472,619,629,635,639,651,664,716,728],"categories_sizes":[159,8,173,6,113,13,147,10,6,4,12,13,52,12,3],"default_left":[0,0,1,0,1,0,0,0,0,0,0,0,1,0,0,1,0,1,1,0,1,0,0,0,0,0,0,0,0,1,0,1,0,0,1,0,0,0,0,1,0,0,0,0,0,0,0,0,0,0,0,0,0,0,0],"id":5,"left_children":[1,3,5,7,9,11,13,15,-1,17,19,-1,21,23,-1,25,27,29,31,33,35,37,39,-1,-1,-1,-1,-1,-1,41,43,45,47,-1,49,-1,-1,-1,-1,51,53,-1,-1,-1,-1,-1,-1,-1,-1,-1,-1,-1,-1,-1,-1],"loss_changes":[3.809035E3,9.968884E1,2.2453711E2,4.1521378E1,5.4033936E1,4.3588135E1,2.2494463E1,1.0589966E1,0E0,1.3118774E2,1.8887146E1,0E0,3.6860107E1,2.2502804E-1,0E0,6.6867657E0,2.0746145E0,4.7445367E2,1.1313782E1,1.1124268E0,1.8280373E1,8.602295E-1,1.7791101E2,0E0,0E0,0E0,0E0,0E0,0E0,1.5518219E1,8.885205E1,1.738707E1,8.982239E-1,0E0,4.0913873E0,0E0,0E0,0E0,0E0,6.9933784E1,1.826825E1,0E0,0E0,0E0,0E0,0E0,0E0,0E0,0E0,0E0,0E0,0E0,0E0,0E0,0E0],"parents":[2147483647,0,0,1,1,2,2,3,3,4,4,5,5,6,6,7,7,9,9,10,10,12,12,13,13,15,15,16,16,17,17,18,18,19,19,20,20,21,21,22,22,29,29,30,30,31,31,32,32,34,34,39,39,40,40],"right_children":[2,4,6,8,10,12,14,16,-1,18,20,-1,22,24,-1,26,28,30,32,34,36,38,40,-1,-1,-1,-1,-1,-1,42,44,46,48,-1,50,-1,-1,-1,-1,52,54,-1,-1,-1,-1,-1,-1,-1,-1,-1,-1,-1,-1,-1,-1],"split_conditions":[2.4804E2,NaN,NaN,NaN,NaN,NaN,6.7444E2,2.302E1,3.8178958E-2,2.424E1,2.3356E2,4.3050434E-2,NaN,NaN,1.8093055E-2,NaN,9.823E1,NaN,NaN,2.2011E2,NaN,2.6957E2,5.8075E2,-3.2111707E-3,-1.0947092E-2,-2.6562277E-3,2.2239054E-2,-9.403154E-3,2.090289E-3,NaN,1.73E1,NaN,2.495E1,-1.20577775E-2,NaN,2.3897678E-2,-9.005951E-3,1.4275995E-2,4.374891E-2,NaN,1.1459E3,4.2503305E-2,1.8909918E-2,-9.677598E-3,5.137084E-3,-5.0240527E-3,-1.16353985E-2,-1.3043194E-3,-1.205592E-2,6.7854333E-3,-9.897121E-3,2.548718E-2,-1.1296333E-2,3.862959E-2,1.0728642E-2],"split_indices":[0,3,2,3,2,3,0,0,0,0,0,0,2,3,0,2,0,2,2,0,2,0,0,0,0,0,0,0,0,2,0,3,0,0,2,0,0,0,0,2,0,0,0,0,0,0,0,0,0,0,0,0,0,0,0],"split_type":[0,1,1,1,1,1,0,0,0,0,0,0,1,1,0,1,0,1,1,0,1,0,0,0,0,0,0,0,0,1,0,1,0,0,1,0,0,0,0,1,0,0,0,0,0,0,0,0,0,0,0,0,0,0,0],"sum_hessian":[1.6879873E3,1.4704199E3,2.1756737E2,1.3528356E1,1.4568916E3,2.0393889E2,1.36284685E1,8.975157E0,4.553199E0,7.824237E2,6.7446783E2,9.986125E1,1.0407764E2,1.0946156E1,2.682313E0,3.5658228E0,5.409334E0,2.7253113E2,5.0989258E2,6.6948895E2,4.9788985E0,2.8479752E1,7.5597885E1,1.4720366E0,9.474118E0,1.3272245E0,2.2385983E0,3.4625053E0,1.9468286E0,2.5566513E1,2.4696461E2,1.6543587E2,3.4445673E2,6.6380743E2,5.681528E0,2.089733E0,2.8891659E0,1.326453E0,2.7153297E1,2.019842E1,5.5399467E1,1.9483265E1,6.083248E0,1.967402E2,5.022441E1,7.4917114E1,9.0518745E1,1.0368222E0,3.434199E2,1.216327E0,4.4652014E0,7.2070546E0,1.29913645E1,5.1971634E1,3.4278336E0],"tree_param":{"num_deleted":"0","num_feature":"4","num_nodes":"55","size_leaf_vector":"1"}},{"base_weights":[-3.7184212E-1,-9.493938E-1,3.420164E0,1.6405233E0,-9.7490895E-1,3.6687717E0,-3.7966022E-1,2.990489E-1,3.7198637E-2,-7.936916E-1,-1.1841483E0,4.178174E-2,3.1506157E0,-1.0232693E0,1.7817803E-2,1.4232318E0,-5.557718E-1,-2.341104E-1,-1.0932757E0,-1.1988317E0,6.4367735E-1,4.152895E0,2.7293246E0,-3.1959864E-3,-1.0918896E-2,-2.643656E-3,2.1882227E-2,-9.374855E-3,2.0746554E-3,3.6715398E0,-6.618806E-1,-8.652359E-1,-1.2002008E0,-1.2032491E-2,-5.8115774E-1,2.3507725E-2,-8.978235E-3,1.4127529E-2,4.231526E-2,2.1660882E-1,3.6113281E0,3.8700666E-2,5.9664E-3,-9.641969E-3,5.070579E-3,-5.7164165E-3,-1.1677257E-2,-1.2982334E-3,-1.2030658E-2,6.732415E-3,-9.868417E-3,2.4195606E-2,-1.1281303E-2,3.7526686E-2,1.0591325E-2],"categories":[0,1,2,3,5,6,7,8,10,11,13,14,15,16,17,18,20,21,22,23,24,25,26,27,28,29,30,31,32,33,34,37,38,40,41,42,43,44,45,46,47,48,49,50,51,52,53,54,55,56,57,58,59,61,63,64,65,66,67,68,69,70,72,73,74,76,77,79,80,81,82,83,84,85,86,87,88,89,90,91,92,93,94,95,96,97,98,99,100,101,102,103,104,105,106,107,108,109,110,111,112,113,114,115,116,117,118,119,120,121,122,123,124,126,127,128,129,130,131,132,133,134,135,136,137,138,139,140,141,142,143,144,147,148,149,150,151,152,153,154,155,156,157,158,159,160,161,163,164,165,166,168,169,170,171,172,173,174,175,1,2,3,5,7,9,10,13,0,1,2,3,4,5,6,7,8,10,11,13,14,15,16,17,18,19,20,21,22,23,24,25,26,27,28,29,30,31,32,33,34,35,36,37,38,39,40,41,42,43,44,45,46,47,48,49,50,51,52,53,54,55,56,57,58,59,60,61,63,64,65,66,67,68,69,70,71,72,73,74,75,76,77,78,79,80,81,82,83,84,85,86,87,88,89,90,91,92,93,94,95,96,97,98,99,100,101,102,103,104,105,106,107,108,109,110,111,112,113,114,115,116,117,118,119,120,121,122,123,124,125,126,127,128,129,130,131,132,133,134,135,136,137,138,139,140,141,142,143,144,145,146,147,148,149,150,151,152,153,154,155,156,157,158,159,160,161,162,163,164,165,166,167,168,169,170,171,172,173,174,175,0,4,6,8,11,12,1,3,5,6,7,10,11,12,13,14,15,17,18,19,20,21,22,24,26,27,28,29,30,31,32,33,34,37,38,40,44,46,50,52,53,54,55,58,59,61,62,63,64,65,67,68,70,72,76,77,79,80,81,82,83,84,85,86,88,89,90,93,94,95,97,98,100,102,104,105,106,107,110,114,116,118,119,120,121,123,124,125,126,127,128,130,131,132,133,135,136,137,138,140,147,149,150,153,154,155,156,157,158,159,161,162,163,164,166,169,170,172,174,0,1,2,3,5,6,7,8,9,10,11,12,13,0,1,2,3,4,5,6,7,8,9,10,11,12,13,14,15,16,17,18,19,20,21,22,23,24,25,26,27,28,29,30,31,32,33,34,35,36,37,38,39,40,41,42,43,44,45,46,47,48,49,50,51,52,53,54,55,56,57,58,59,60,61,62,63,64,65,66,67,68,69,70,71,72,73,74,75,76,77,78,79,80,81,82,83,84,85,86,87,88,89,90,91,92,93,94,95,96,97,98,99,100,101,102,103,104,105,106,107,108,109,110,111,112,113,114,115,116,117,118,119,120,121,122,123,124,125,126,127,128,129,130,131,132,133,134,135,136,137,138,139,140,141,142,143,144,145,146,0,1,2,3,4,5,6,7,8,9,1,5,7,9,10,13,2,3,5,7,0,1,2,3,4,5,7,8,9,10,11,12,2,3,6,14,17,29,34,38,39,41,47,49,57,61,63,67,71,73,75,80,81,82,84,86,90,104,106,107,108,109,112,114,119,127,138,139,141,146,156,157,160,162,0,1,2,3,4,5,7,8,9,10,11,12,8,11,12],"categories_nodes":[1,2,3,4,5,12,13,15,17,18,20,31,34,39],"categories_segments":[0,159,167,340,346,459,472,619,629,635,639,651,693,705],"categories_sizes":[159,8,173,6,113,13,147,10,6,4,12,42,12,3],"default_left":[0,0,1,0,1,0,0,0,0,0,0,0,1,0,0,1,0,1,1,0,1,0,0,0,0,0,0,0,0,0,0,1,0,0,1,0,0,0,0,1,0,0,0,0,0,0,0,0,0,0,0,0,0,0,0],"id":6,"left_children":[1,3,5,7,9,11,13,15,-1,17,19,-1,21,23,-1,25,27,29,31,33,35,37,39,-1,-1,-1,-1,-1,-1,41,43,45,47,-1,49,-1,-1,-1,-1,51,53,-1,-1,-1,-1,-1,-1,-1,-1,-1,-1,-1,-1,-1,-1],"loss_changes":[3.691125E3,9.821863E1,2.1185376E2,3.971447E1,5.3983154E1,4.2055176E1,2.211602E1,1.0385589E1,0E0,1.3037823E2,1.8759705E1,0E0,3.417383E1,2.2445679E-1,0E0,6.508649E0,2.056368E0,4.5851974E2,1.1330139E1,1.1158447E0,1.7878107E1,4.8095703E-1,1.7385162E2,0E0,0E0,0E0,0E0,0E0,0E0,1.4234619E1,8.773681E1,1.4030968E1,8.9489746E-1,0E0,4.0525475E0,0E0,0E0,0E0,0E0,6.65301E1,1.704187E1,0E0,0E0,0E0,0E0,0E0,0E0,0E0,0E0,0E0,0E0,0E0,0E0,0E0,0E0],"parents":[2147483647,0,0,1,1,2,2,3,3,4,4,5,5,6,6,7,7,9,9,10,10,12,12,13,13,15,15,16,16,17,17,18,18,19,19,20,20,21,21,22,22,29,29,30,30,31,31,32,32,34,34,39,39,40,40],"right_children":[2,4,6,8,10,12,14,16,-1,18,20,-1,22,24,-1,26,28,30,32,34,36,38,40,-1,-1,-1,-1,-1,-1,42,44,46,48,-1,50,-1,-1,-1,-1,52,54,-1,-1,-1,-1,-1,-1,-1,-1,-1,-1,-1,-1,-1,-1],"split_conditions":[2.4804E2,NaN,NaN,NaN,NaN,NaN,6.7444E2,2.302E1,3.7198637E-2,2.424E1,2.3356E2,4.178174E-2,NaN,NaN,1.7817803E-2,NaN,9.823E1,NaN,NaN,2.2011E2,NaN,2.6957E2,5.8075E2,-3.1959864E-3,-1.0918896E-2,-2.643656E-3,2.1882227E-2,-9.374855E-3,2.0746554E-3,2.246E1,1.73E1,NaN,2.495E1,-1.2032491E-2,NaN,2.3507725E-2,-8.978235E-3,1.4127529E-2,4.231526E-2,NaN,1.1459E3,3.8700666E-2,5.9664E-3,-9.641969E-3,5.070579E-3,-5.7164165E-3,-1.1677257E-2,-1.2982334E-3,-1.2030658E-2,6.732415E-3,-9.868417E-3,2.4195606E-2,-1.1281303E-2,3.7526686E-2,1.0591325E-2],"split_indices":[0,3,2,3,2,3,0,0,0,0,0,0,2,3,0,2,0,2,2,0,2,0,0,0,0,0,0,0,0,0,0,1,0,0,2,0,0,0,0,2,0,0,0,0,0,0,0,0,0,0,0,0,0,0,0],"split_type":[0,1,1,1,1,1,0,0,0,0,0,0,1,1,0,1,0,1,1,0,1,0,0,0,0,0,0,0,0,0,0,1,0,0,1,0,0,0,0,1,0,0,0,0,0,0,0,0,0,0,0,0,0,0,0],"sum_hessian":[1.6829012E3,1.4611122E3,2.21789E2,1.3636537E1,1.4474757E3,2.0820166E2,1.35873375E1,8.984232E0,4.652305E0,7.7824713E2,6.692286E2,1.014258E2,1.0677586E2,1.0875526E1,2.7118104E0,3.5934732E0,5.3907585E0,2.7198975E2,5.062574E2,6.642367E2,4.991866E0,2.8977936E1,7.779793E1,1.4690064E0,9.40652E0,1.3249673E0,2.2685058E0,3.4413524E0,1.9494061E0,2.610071E1,2.4588905E2,1.6450613E2,3.4175125E2,6.5857874E2,5.657956E0,2.1195905E0,2.8722754E0,1.3374419E0,2.7640493E1,2.0536798E1,5.726113E1,2.4274836E1,1.8258743E0,1.9550246E2,5.03866E1,8.494701E1,7.955913E1,1.0359589E0,3.407153E2,1.2214956E0,4.4364605E0,7.4814334E0,1.3055365E1,5.3810726E1,3.4504032E0],"tree_param":{"num_deleted":"0","num_feature":"4","num_nodes":"55","size_leaf_vector":"1"}},{"base_weights":[-3.6922556E-1,-9.459039E-1,3.3255966E0,1.6157253E0,-9.714869E-1,3.562476E0,-3.7671676E-1,2.9695195E-1,3.627106E-2,-7.900048E-1,-1.1815479E0,4.0448777E-2,3.0688095E0,-1.0202943E0,1.7549412E-2,1.4047948E0,-5.5297196E-1,-2.3214327E-1,-1.090215E0,-1.1963134E0,6.3825417E-1,4.028804E0,2.6565225E0,-3.1808733E-3,-1.0890944E-2,-2.631144E-3,2.1535277E-2,-9.346729E-3,2.0591477E-3,3.566497E0,-6.581595E-1,-8.615204E-1,-1.1976935E0,-1.2007553E-2,-5.778775E-1,2.3128955E-2,-8.9506805E-3,1.3981324E-2,4.101316E-2,2.1486317E-1,3.502611E0,4.003287E-2,1.7950341E-2,-9.606504E-3,5.0051766E-3,-5.680788E-3,-1.1650431E-2,-1.2921756E-3,-1.2005746E-2,6.679883E-3,-9.839904E-3,2.3688164E-2,-1.1253095E-2,3.637344E-2,1.0456542E-2],"categories":[0,1,2,3,5,6,7,8,10,11,13,14,15,16,17,18,20,21,22,23,24,25,26,27,28,29,30,31,32,33,34,37,38,40,41,42,43,44,45,46,47,48,49,50,51,52,53,54,55,56,57,58,59,61,63,64,65,66,67,68,69,70,72,73,74,76,77,79,80,81,82,83,84,85,86,87,88,89,90,91,92,93,94,95,96,97,98,99,100,101,102,103,104,105,106,107,108,109,110,111,112,113,114,115,116,117,118,119,120,121,122,123,124,126,127,128,129,130,131,132,133,134,135,136,137,138,139,140,141,142,143,144,147,148,149,150,151,152,153,154,155,156,157,158,159,160,161,163,164,165,166,168,169,170,171,172,173,174,175,1,2,3,5,7,9,10,13,0,1,2,3,4,5,6,7,8,10,11,13,14,15,16,17,18,19,20,21,22,23,24,25,26,27,28,29,30,31,32,33,34,35,36,37,38,39,40,41,42,43,44,45,46,47,48,49,50,51,52,53,54,55,56,57,58,59,60,61,63,64,65,66,67,68,69,70,71,72,73,74,75,76,77,78,79,80,81,82,83,84,85,86,87,88,89,90,91,92,93,94,95,96,97,98,99,100,101,102,103,104,105,106,107,108,109,110,111,112,113,114,115,116,117,118,119,120,121,122,123,124,125,126,127,128,129,130,131,132,133,134,135,136,137,138,139,140,141,142,143,144,145,146,147,148,149,150,151,152,153,154,155,156,157,158,159,160,161,162,163,164,165,166,167,168,169,170,171,172,173,174,175,0,4,6,8,11,12,1,3,5,6,7,10,11,12,13,14,15,17,18,19,20,21,22,24,26,27,28,29,30,31,32,33,34,37,38,40,44,46,50,52,53,54,55,58,59,61,62,63,64,65,67,68,70,72,76,77,79,80,81,82,83,84,85,86,88,89,90,93,94,95,97,98,100,102,104,105,106,107,109,110,114,116,118,119,120,121,123,124,125,126,127,128,130,131,132,133,135,136,137,138,140,147,149,150,153,154,155,156,157,158,159,161,162,164,166,169,170,172,174,0,1,2,3,5,6,7,8,9,10,11,12,13,0,1,2,3,4,5,6,7,8,9,10,11,12,13,14,15,16,17,18,19,20,21,22,23,24,25,26,27,28,29,30,31,32,33,34,35,36,37,38,39,40,41,42,43,44,45,46,47,48,49,50,51,52,53,54,55,56,57,58,59,60,61,62,63,64,65,66,67,68,69,70,71,72,73,74,75,76,77,78,79,80,81,82,83,84,85,86,87,88,89,90,91,92,93,94,95,96,97,98,99,100,101,102,103,104,105,106,107,108,109,110,111,112,113,114,115,116,117,118,119,120,121,122,123,124,125,126,127,128,129,130,131,132,133,134,135,136,137,138,139,140,141,142,143,144,145,146,0,1,2,3,4,5,6,7,8,9,1,5,7,9,10,13,2,3,5,7,0,1,2,3,4,5,7,8,9,10,11,12,0,1,3,4,5,6,7,8,9,10,11,12,13,2,3,6,14,17,29,34,38,39,41,47,49,57,61,63,67,71,73,75,80,81,82,84,86,90,104,106,107,108,109,112,114,119,127,138,139,141,146,156,157,160,162,0,1,2,3,4,5,7,8,9,10,11,12,8,11,12],"categories_nodes":[1,2,3,4,5,12,13,15,17,18,20,29,31,34,39],"categories_segments":[0,159,167,340,346,459,472,619,629,635,639,651,664,706,718],"categories_sizes":[159,8,173,6,113,13,147,10,6,4,12,13,42,12,3],"default_left":[0,0,1,0,1,0,0,0,0,0,0,0,1,0,0,1,0,1,1,0,1,0,0,0,0,0,0,0,0,1,0,1,0,0,1,0,0,0,0,1,0,0,0,0,0,0,0,0,0,0,0,0,0,0,0],"id":7,"left_children":[1,3,5,7,9,11,13,15,-1,17,19,-1,21,23,-1,25,27,29,31,33,35,37,39,-1,-1,-1,-1,-1,-1,41,43,45,47,-1,49,-1,-1,-1,-1,51,53,-1,-1,-1,-1,-1,-1,-1,-1,-1,-1,-1,-1,-1,-1],"loss_changes":[3.5799963E3,9.678076E1,2.0029541E2,3.8025852E1,5.3928467E1,3.8385986E1,2.1746231E1,1.0186001E1,0E0,1.295556E2,1.863263E1,0E0,3.2663696E1,2.2390842E-1,0E0,6.337023E0,2.0383048E0,4.4324548E2,1.1347595E1,1.1192627E0,1.7488228E1,1.7593384E-1,1.6365991E2,0E0,0E0,0E0,0E0,0E0,0E0,1.4192566E1,8.663763E1,1.3996933E1,8.916626E-1,0E0,4.0140963E0,0E0,0E0,0E0,0E0,6.486288E1,1.574054E1,0E0,0E0,0E0,0E0,0E0,0E0,0E0,0E0,0E0,0E0,0E0,0E0,0E0,0E0],"parents":[2147483647,0,0,1,1,2,2,3,3,4,4,5,5,6,6,7,7,9,9,10,10,12,12,13,13,15,15,16,16,17,17,18,18,19,19,20,20,21,21,22,22,29,29,30,30,31,31,32,32,34,34,39,39,40,40],"right_children":[2,4,6,8,10,12,14,16,-1,18,20,-1,22,24,-1,26,28,30,32,34,36,38,40,-1,-1,-1,-1,-1,-1,42,44,46,48,-1,50,-1,-1,-1,-1,52,54,-1,-1,-1,-1,-1,-1,-1,-1,-1,-1,-1,-1,-1,-1],"split_conditions":[2.4804E2,NaN,NaN,NaN,NaN,NaN,6.7444E2,2.302E1,3.627106E-2,2.424E1,2.3356E2,4.0448777E-2,NaN,NaN,1.7549412E-2,NaN,9.823E1,NaN,NaN,2.2011E2,NaN,2.6957E2,5.8075E2,-3.1808733E-3,-1.0890944E-2,-2.631144E-3,2.1535277E-2,-9.346729E-3,2.0591477E-3,NaN,1.73E1,NaN,2.495E1,-1.2007553E-2,NaN,2.3128955E-2,-8.9506805E-3,1.3981324E-2,4.101316E-2,NaN,1.1459E3,4.003287E-2,1.7950341E-2,-9.606504E-3,5.0051766E-3,-5.680788E-3,-1.1650431E-2,-1.2921756E-3,-1.2005746E-2,6.679883E-3,-9.839904E-3,2.3688164E-2,-1.1253095E-2,3.637344E-2,1.0456542E-2],"split_indices":[0,3,2,3,2,3,0,0,0,0,0,0,2,3,0,2,0,2,2,0,2,0,0,0,0,0,0,0,0,2,0,1,0,0,2,0,0,0,0,2,0,0,0,0,0,0,0,0,0,0,0,0,0,0,0],"split_type":[0,1,1,1,1,1,0,0,0,0,0,0,1,1,0,1,0,1,1,0,1,0,0,0,0,0,0,0,0,1,0,1,0,0,1,0,0,0,0,1,0,0,0,0,0,0,0,0,0,0,0,0,0,0,0],"sum_hessian":[1.677702E3,1.4518457E3,2.2585635E2,1.3741604E1,1.4381041E3,2.1231021E2,1.3546148E1,8.992956E0,4.748647E0,7.7409E2,6.640141E2,1.03741936E2,1.0856827E2,1.0805252E1,2.7408962E0,3.6206856E0,5.372271E0,2.7144824E2,5.026418E2,6.5900964E2,5.0044556E0,2.9982746E1,7.8585526E1,1.4659923E0,9.339259E0,1.3227218E0,2.2979639E0,3.4203062E0,1.951965E0,2.6629587E1,2.4481865E2,1.6358308E2,3.3905872E2,6.533751E2,5.634493E0,2.148986E0,2.8554692E0,1.3483157E0,2.863443E1,2.0546362E1,5.803916E1,2.035161E1,6.2779765E0,1.9427184E2,5.054681E1,8.4632835E1,7.895025E1,1.0351E0,3.3802362E2,1.2266287E0,4.4078646E0,7.5861692E0,1.2960193E1,5.4566452E1,3.472707E0],"tree_param":{"num_deleted":"0","num_feature":"4","num_nodes":"55","size_leaf_vector":"1"}},{"base_weights":[-3.6665148E-1,-9.424451E-1,3.2367957E0,1.5916638E0,-9.680948E-1,3.462943E0,-3.7381315E-1,2.948562E-1,3.5392284E-2,-7.863447E-1,-1.1789813E0,3.9209228E-2,2.9916458E0,-1.0173402E0,1.7287642E-2,1.2672656E0,-6.564031E-1,-2.3016055E-1,-1.087179E0,-1.1938289E0,6.328777E-1,3.9091486E-2,2.5980709E0,-3.1658316E-3,-1.0863234E-2,2.4957148E-2,-2.34973E-1,-2.9014763E-1,-8.467264E-3,3.4698145E0,-6.544581E-1,-8.578205E-1,-1.1952201E0,-1.1982958E-2,-5.746214E-1,2.2760928E-2,-8.923286E-3,2.131337E-1,3.4072905E0,-6.7584035E-3,3.785485E-3,-6.167582E-3,9.855742E-4,3.8856868E-2,1.7635694E-2,-9.571199E-3,4.9408507E-3,-5.645306E-3,-1.1623911E-2,-1.2861459E-3,-1.1981174E-2,6.6278353E-3,-9.811578E-3,2.3200521E-2,-1.1225165E-2,3.53519E-2,1.0324223E-2],"categories":[0,1,2,3,5,6,7,8,10,11,13,14,15,16,17,18,20,21,22,23,24,25,26,27,28,29,30,31,32,33,34,37,38,40,41,42,43,44,45,46,47,48,49,50,51,52,53,54,55,56,57,58,59,61,63,64,65,66,67,68,69,70,72,73,74,76,77,79,80,81,82,83,84,85,86,87,88,89,90,91,92,93,94,95,96,97,98,99,100,101,102,103,104,105,106,107,108,109,110,111,112,113,114,115,116,117,118,119,120,121,122,123,124,126,127,128,129,130,131,132,133,134,135,136,137,138,139,140,141,142,143,144,147,148,149,150,151,152,153,154,155,156,157,158,159,160,161,163,164,165,166,168,169,170,171,172,173,174,175,1,2,3,5,7,9,10,13,0,1,2,3,4,5,6,7,8,10,11,13,14,15,16,17,18,19,20,21,22,23,24,25,26,27,28,29,30,31,32,33,34,35,36,37,38,39,40,41,42,43,44,45,46,47,48,49,50,51,52,53,54,55,56,57,58,59,60,61,63,64,65,66,67,68,69,70,71,72,73,74,75,76,77,78,79,80,81,82,83,84,85,86,87,88,89,90,91,92,93,94,95,96,97,98,99,100,101,102,103,104,105,106,107,108,109,110,111,112,113,114,115,116,117,118,119,120,121,122,123,124,125,126,127,128,129,130,131,132,133,134,135,136,137,138,139,140,141,142,143,144,145,146,147,148,149,150,151,152,153,154,155,156,157,158,159,160,161,162,163,164,165,166,167,168,169,170,171,172,173,174,175,0,4,6,8,11,12,1,3,5,6,7,8,10,11,12,13,14,15,17,18,19,20,21,22,24,26,27,28,29,30,31,32,33,34,37,38,40,44,46,50,52,53,54,55,58,59,61,62,63,64,65,67,68,70,72,76,77,79,80,81,82,83,84,85,86,88,89,90,93,94,95,97,98,100,102,104,105,106,107,110,114,116,118,119,120,121,123,124,125,126,127,128,130,131,132,133,135,136,137,138,140,147,149,150,153,154,155,156,157,158,159,161,162,164,166,169,170,172,174,0,1,3,4,10,12,0,1,2,3,5,6,7,8,9,10,11,12,13,0,1,2,3,4,5,6,7,8,9,10,11,12,13,14,15,16,17,18,19,20,21,22,23,24,25,26,27,28,29,30,31,32,33,34,35,36,37,38,39,40,41,42,43,44,45,46,47,48,49,50,51,52,53,54,55,56,57,58,59,60,61,62,63,64,65,66,67,68,69,70,71,72,73,74,75,76,77,78,79,80,81,82,83,84,85,86,87,88,89,90,91,92,93,94,95,96,97,98,99,100,101,102,103,104,105,106,107,108,109,110,111,112,113,114,115,116,117,118,119,120,121,122,123,124,125,126,127,128,129,130,131,132,133,134,135,136,137,138,139,140,141,142,143,144,145,146,0,12,1,5,7,9,10,13,2,3,5,7,0,1,2,3,4,5,7,8,9,10,11,12,0,1,10,0,1,3,4,5,6,7,8,9,10,11,12,13,2,3,6,14,17,29,34,38,39,41,47,49,57,61,63,67,71,73,75,80,81,82,84,86,90,104,106,107,108,109,112,114,119,127,138,139,141,146,156,157,160,162,0,1,2,3,4,5,7,8,9,10,11,12,8,11,12],"categories_nodes":[1,2,3,4,5,7,12,13,16,17,18,20,27,29,31,34,37],"categories_segments":[0,159,167,340,346,459,465,478,625,627,633,637,649,652,665,707,719],"categories_sizes":[159,8,173,6,113,6,13,147,2,6,4,12,3,13,42,12,3],"default_left":[0,0,1,0,1,0,0,1,0,0,0,0,1,0,0,0,1,1,1,0,1,0,0,0,0,0,0,1,0,1,0,1,0,0,1,0,0,1,0,0,0,0,0,0,0,0,0,0,0,0,0,0,0,0,0,0,0],"id":8,"left_children":[1,3,5,7,9,11,13,15,-1,17,19,-1,21,23,-1,25,27,29,31,33,35,-1,37,-1,-1,-1,39,41,-1,43,45,47,49,-1,51,-1,-1,53,55,-1,-1,-1,-1,-1,-1,-1,-1,-1,-1,-1,-1,-1,-1,-1,-1,-1,-1],"loss_changes":[3.4750278E3,9.5373535E1,1.8972803E2,3.64456E1,5.387329E1,3.5166504E1,2.1384825E1,1.0083203E1,0E0,1.2874088E2,1.8506104E1,0E0,3.003363E1,2.2338009E-1,0E0,1.0343016E1,1.5265918E-1,4.290972E2,1.1365845E1,1.1224976E0,1.7110243E1,0E0,1.5534418E2,0E0,0E0,0E0,1.1463618E0,5.020015E-1,0E0,1.3107452E1,8.5554115E1,1.3963615E1,8.885498E-1,0E0,3.9760303E0,0E0,0E0,6.3259926E1,1.4670227E1,0E0,0E0,0E0,0E0,0E0,0E0,0E0,0E0,0E0,0E0,0E0,0E0,0E0,0E0,0E0,0E0,0E0,0E0],"parents":[2147483647,0,0,1,1,2,2,3,3,4,4,5,5,6,6,7,7,9,9,10,10,12,12,13,13,15,15,16,16,17,17,18,18,19,19,20,20,22,22,26,26,27,27,29,29,30,30,31,31,32,32,34,34,37,37,38,38],"right_children":[2,4,6,8,10,12,14,16,-1,18,20,-1,22,24,-1,26,28,30,32,34,36,-1,38,-1,-1,-1,40,42,-1,44,46,48,50,-1,52,-1,-1,54,56,-1,-1,-1,-1,-1,-1,-1,-1,-1,-1,-1,-1,-1,-1,-1,-1,-1,-1],"split_conditions":[2.4804E2,NaN,NaN,NaN,NaN,NaN,6.7444E2,NaN,3.5392284E-2,2.424E1,2.3356E2,3.9209228E-2,NaN,NaN,1.7287642E-2,2.302E1,NaN,NaN,NaN,2.2011E2,NaN,3.9091486E-2,5.8075E2,-3.1658316E-3,-1.0863234E-2,2.4957148E-2,8.103E1,NaN,-8.467264E-3,NaN,1.73E1,NaN,2.495E1,-1.1982958E-2,NaN,2.2760928E-2,-8.923286E-3,NaN,1.1459E3,-6.7584035E-3,3.785485E-3,-6.167582E-3,9.855742E-4,3.8856868E-2,1.7635694E-2,-9.571199E-3,4.9408507E-3,-5.645306E-3,-1.1623911E-2,-1.2861459E-3,-1.1981174E-2,6.6278353E-3,-9.811578E-3,2.3200521E-2,-1.1225165E-2,3.53519E-2,1.0324223E-2],"split_indices":[0,3,2,3,2,3,0,2,0,0,0,0,2,3,0,0,2,2,2,0,2,0,0,0,0,0,0,2,0,2,0,1,0,0,2,0,0,2,0,0,0,0,0,0,0,0,0,0,0,0,0,0,0,0,0,0,0],"split_type":[0,1,1,1,1,1,0,1,0,0,0,0,1,1,0,0,1,1,1,0,1,0,0,0,0,0,0,1,0,1,0,1,0,0,1,0,0,1,0,0,0,0,0,0,0,0,0,0,0,0,0,0,0,0,0,0,0],"sum_hessian":[1.6723696E3,1.4425961E3,2.2977351E2,1.3843569E1,1.4287526E3,2.162686E2,1.3504904E1,9.00133E0,4.8422384E0,7.699277E2,6.588249E2,1.05971794E2,1.1029681E2,1.0735332E1,2.7695715E0,4.286909E0,4.714421E0,2.708829E2,4.9904477E2,6.5380817E2,5.0166655E0,3.042877E1,7.986804E1,1.4629942E0,9.272338E0,1.9945464E0,2.292363E0,2.4753642E0,2.2390568E0,2.7129496E1,2.4375342E2,1.6266537E2,3.363794E2,6.481971E2,5.6111393E0,2.1779182E0,2.8387473E0,2.0554136E1,5.93139E1,1.2747622E0,1.0176007E0,1.026307E0,1.4490571E0,2.0785902E1,6.343594E0,1.9304836E2,5.070506E1,8.432098E1,7.834439E1,1.0342451E0,3.3534515E2,1.231726E0,4.379413E0,7.6886587E0,1.28654785E1,5.5819153E1,3.494747E0],"tree_param":{"num_deleted":"0","num_feature":"4","num_nodes":"57","size_leaf_vector":"1"}},{"base_weights":[-3.6413282E-1,-9.3902016E-1,3.1530592E0,1.5678482E0,-9.647348E-1,3.369337E0,-3.7094855E-1,2.9238924E-1,3.4558736E-2,-7.8271824E-1,-1.1764482E0,3.805416E-2,2.9183211E0,-1.0144063E0,1.7032262E-2,1.2526039E0,-6.539709E-1,-2.2820736E-1,-1.0841674E0,-1.1913781E0,6.2754893E-1,3.797038E0,2.5390768E0,-3.1508612E-3,-1.083576E-2,2.4553442E-2,-2.3375906E-1,-2.8900203E-1,-8.440147E-3,3.3787987E0,-6.5077615E-1,-8.5413593E-1,-1.1927803E0,-1.1958702E-2,-5.713892E-1,2.2403251E-2,-8.896046E-3,1.3438485E-2,3.864374E-2,2.1142034E-1,3.315405E0,-6.7374003E-3,3.7617248E-3,-6.1487397E-3,9.793707E-4,3.5598885E-2,5.399874E-3,-9.536053E-3,4.8775766E-3,-5.6099705E-3,-1.1597686E-2,-1.2801451E-3,-1.195694E-2,6.5762657E-3,-9.7834375E-3,2.2731537E-2,-1.11975055E-2,3.4373347E-2,1.0194305E-2],"categories":[0,1,2,3,5,6,7,8,10,11,13,14,15,16,17,18,20,21,22,23,24,25,26,27,28,29,30,31,32,33,34,37,38,40,41,42,43,44,45,46,47,48,49,50,51,52,53,54,55,56,57,58,59,61,63,64,65,66,67,68,69,70,72,73,74,76,77,79,80,81,82,83,84,85,86,87,88,89,90,91,92,93,94,95,96,97,98,99,100,101,102,103,104,105,106,107,108,109,110,111,112,113,114,115,116,117,118,119,120,121,122,123,124,126,127,128,129,130,131,132,133,134,135,136,137,138,139,140,141,142,143,144,147,148,149,150,151,152,153,154,155,156,157,158,159,160,161,163,164,165,166,168,169,170,171,172,173,174,175,1,2,3,5,7,9,10,13,0,1,2,3,4,5,6,7,8,10,11,13,14,15,16,17,18,19,20,21,22,23,24,25,26,27,28,29,30,31,32,33,34,35,36,37,38,39,40,41,42,43,44,45,46,47,48,49,50,51,52,53,54,55,56,57,58,59,60,61,63,64,65,66,67,68,69,70,71,72,73,74,75,76,77,78,79,80,81,82,83,84,85,86,87,88,89,90,91,92,93,94,95,96,97,98,99,100,101,102,103,104,105,106,107,108,109,110,111,112,113,114,115,116,117,118,119,120,121,122,123,124,125,126,127,128,129,130,131,132,133,134,135,136,137,138,139,140,141,142,143,144,145,146,147,148,149,150,151,152,153,154,155,156,157,158,159,160,161,162,163,164,165,166,167,168,169,170,171,172,173,174,175,0,4,6,8,11,12,1,3,5,6,7,10,11,12,13,14,15,17,18,19,20,21,22,24,26,27,28,29,30,31,32,33,34,37,38,40,44,46,50,52,53,54,55,58,59,61,62,63,64,65,67,68,70,72,74,76,77,79,80,81,82,83,84,85,86,88,89,90,93,94,95,97,98,100,102,104,105,106,107,110,114,116,118,119,120,121,123,124,125,126,127,128,130,131,132,133,135,136,137,138,140,147,149,150,153,154,155,156,157,158,159,161,162,164,166,169,170,172,174,0,1,3,4,10,12,0,1,2,3,5,6,7,8,9,10,11,12,13,0,1,2,3,4,5,6,7,8,9,10,11,12,13,14,15,16,17,18,19,20,21,22,23,24,25,26,27,28,29,30,31,32,33,34,35,36,37,38,39,40,41,42,43,44,45,46,47,48,49,50,51,52,53,54,55,56,57,58,59,60,61,62,63,64,65,66,67,68,69,70,71,72,73,74,75,76,77,78,79,80,81,82,83,84,85,86,87,88,89,90,91,92,93,94,95,96,97,98,99,100,101,102,103,104,105,106,107,108,109,110,111,112,113,114,115,116,117,118,119,120,121,122,123,124,125,126,127,128,129,130,131,132,133,134,135,136,137,138,139,140,141,142,143,144,145,146,0,12,1,5,7,9,10,13,2,3,5,7,0,1,2,3,4,5,7,8,9,10,11,12,0,1,10,2,3,6,14,17,29,34,38,39,41,47,49,57,61,63,67,71,73,75,80,81,82,84,86,90,104,106,107,108,109,112,114,119,127,138,139,141,146,156,157,160,162,0,1,2,3,4,5,7,8,9,10,11,12,8,11,12],"categories_nodes":[1,2,3,4,5,7,12,13,16,17,18,20,27,31,34,39],"categories_segments":[0,159,167,340,346,459,465,478,625,627,633,637,649,652,694,706],"categories_sizes":[159,8,173,6,113,6,13,147,2,6,4,12,3,42,12,3],"default_left":[0,0,1,0,1,0,0,1,0,0,0,0,1,0,0,0,1,1,1,0,1,0,0,0,0,0,0,1,0,0,0,1,0,0,1,0,0,0,0,1,0,0,0,0,0,0,0,0,0,0,0,0,0,0,0,0,0,0,0],"id":9,"left_children":[1,3,5,7,9,11,13,15,-1,17,19,-1,21,23,-1,25,27,29,31,33,35,37,39,-1,-1,-1,41,43,-1,45,47,49,51,-1,53,-1,-1,-1,-1,55,57,-1,-1,-1,-1,-1,-1,-1,-1,-1,-1,-1,-1,-1,-1,-1,-1,-1,-1],"loss_changes":[3.3755012E3,9.3977295E1,1.8001807E2,3.4978413E1,5.381604E1,3.2378418E1,2.1031528E1,9.91701E0,0E0,1.2792383E2,1.8379883E1,0E0,2.8007263E1,2.228756E-1,0E0,1.0071249E1,1.5138102E-1,4.157256E2,1.1385071E1,1.1259766E0,1.67437E1,9.957886E-2,1.4735431E2,0E0,0E0,0E0,1.136123E0,4.9804083E-1,0E0,1.2786804E1,8.448605E1,1.3930885E1,8.854675E-1,0E0,3.938345E0,0E0,0E0,0E0,0E0,6.171765E1,1.3677063E1,0E0,0E0,0E0,0E0,0E0,0E0,0E0,0E0,0E0,0E0,0E0,0E0,0E0,0E0,0E0,0E0,0E0,0E0],"parents":[2147483647,0,0,1,1,2,2,3,3,4,4,5,5,6,6,7,7,9,9,10,10,12,12,13,13,15,15,16,16,17,17,18,18,19,19,20,20,21,21,22,22,26,26,27,27,29,29,30,30,31,31,32,32,34,34,39,39,40,40],"right_children":[2,4,6,8,10,12,14,16,-1,18,20,-1,22,24,-1,26,28,30,32,34,36,38,40,-1,-1,-1,42,44,-1,46,48,50,52,-1,54,-1,-1,-1,-1,56,58,-1,-1,-1,-1,-1,-1,-1,-1,-1,-1,-1,-1,-1,-1,-1,-1,-1,-1],"split_conditions":[2.4804E2,NaN,NaN,NaN,NaN,NaN,6.7444E2,NaN,3.4558736E-2,2.424E1,2.3356E2,3.805416E-2,NaN,NaN,1.7032262E-2,2.302E1,NaN,NaN,NaN,2.2011E2,NaN,2.6957E2,5.8075E2,-3.1508612E-3,-1.083576E-2,2.4553442E-2,8.103E1,NaN,-8.440147E-3,2.246E1,1.73E1,NaN,2.495E1,-1.1958702E-2,NaN,2.2403251E-2,-8.896046E-3,1.3438485E-2,3.864374E-2,NaN,1.1459E3,-6.7374003E-3,3.7617248E-3,-6.1487397E-3,9.793707E-4,3.5598885E-2,5.399874E-3,-9.536053E-3,4.8775766E-3,-5.6099705E-3,-1.1597686E-2,-1.2801451E-3,-1.195694E-2,6.5762657E-3,-9.7834375E-3,2.2731537E-2,-1.11975055E-2,3.4373347E-2,1.0194305E-2],"split_indices":[0,3,2,3,2,3,0,2,0,0,0,0,2,3,0,0,2,2,2,0,2,0,0,0,0,0,0,2,0,0,0,1,0,0,2,0,0,0,0,2,0,0,0,0,0,0,0,0,0,0,0,0,0,0,0,0,0,0,0],"split_type":[0,1,1,1,1,1,0,1,0,0,0,0,1,1,0,0,1,1,1,0,1,0,0,0,0,0,0,1,0,0,0,1,0,0,1,0,0,0,0,1,0,0,0,0,0,0,0,0,0,0,0,0,0,0,0,0,0,0,0],"sum_hessian":[1.6669319E3,1.4333783E3,2.3355359E2,1.394493E1,1.4194333E3,2.2008998E2,1.3463609E1,9.011835E0,4.9330955E0,7.6577234E2,6.53661E2,1.0811655E2,1.1197343E2,1.0665771E1,2.7978377E0,4.312549E0,4.699286E0,2.7030594E2,4.954664E2,6.486325E2,5.028494E0,3.1040293E1,8.0933136E1,1.4600122E0,9.205758E0,2.023363E0,2.289186E0,2.472225E0,2.227061E0,2.76125E1,2.4269345E2,1.6175304E2,3.3371338E2,6.430446E2,5.587897E0,2.2063837E0,2.8221104E0,1.3891196E0,2.9651173E1,2.0560162E1,6.0372974E1,1.2690946E0,1.0200915E0,1.0222423E0,1.4499826E0,2.5717926E1,1.8945725E0,1.9183206E2,5.0861385E1,8.401142E1,7.774161E1,1.0333945E0,3.3267996E2,1.2367878E0,4.351109E0,7.788933E0,1.2771228E1,5.685645E1,3.5165255E0],"tree_param":{"num_deleted":"0","num_feature":"4","num_nodes":"59","size_leaf_vector":"1"}},{"base_weights":[-3.6165947E-1,-9.3562984E-1,3.0743113E0,1.544729E0,-9.6140784E-1,3.2815254E0,-3.681222E-1,2.8992516E-1,3.376717E-2,-7.791311E-1,-1.1739477E0,3.3248954E0,-1.277444E-1,-1.0114925E0,1.678305E-2,1.2382027E0,-6.5155286E-1,-2.263258E-1,-1.0811795E0,-1.1889598E0,6.222683E-1,3.697443E-2,2.9246497E0,-7.597762E-3,6.996745E-3,-3.1359615E-3,-1.0808518E-2,2.416152E-2,-2.3255707E-1,-2.8786382E-1,-8.413186E-3,3.2911093E0,-6.471134E-1,-8.5046613E-1,-1.1903731E0,-1.1934772E-2,-5.6818056E-1,2.2055523E-2,-8.868962E-3,3.719359E-2,2.5700715E0,-6.7164996E-3,3.7381218E-3,-6.1299894E-3,9.732069E-4,3.6826815E-2,1.6791208E-2,-9.50106E-3,4.815331E-3,-5.57478E-3,-1.1571754E-2,-1.274172E-3,-1.1933037E-2,6.525166E-3,-9.755477E-3,3.4466216E-3,3.2373838E-2],"categories":[0,1,2,3,5,6,7,8,10,11,13,14,15,16,17,18,20,21,22,23,24,25,26,27,28,29,30,31,32,33,34,37,38,40,41,42,43,44,45,46,47,48,49,50,51,52,53,54,55,56,57,58,59,61,63,64,65,66,67,68,69,70,72,73,74,76,77,79,80,81,82,83,84,85,86,87,88,89,90,91,92,93,94,95,96,97,98,99,100,101,102,103,104,105,106,107,108,109,110,111,112,113,114,115,116,117,118,119,120,121,122,123,124,126,127,128,129,130,131,132,133,134,135,136,137,138,139,140,141,142,143,144,147,148,149,150,151,152,153,154,155,156,157,158,159,160,161,163,164,165,166,168,169,170,171,172,173,174,175,1,2,3,5,7,9,10,13,0,1,2,3,4,5,6,7,8,10,11,13,14,15,16,17,18,19,20,21,22,23,24,25,26,27,28,29,30,31,32,33,34,35,36,37,38,39,40,41,42,43,44,45,46,47,48,49,50,51,52,53,54,55,56,57,58,59,60,61,63,64,65,66,67,68,69,70,71,72,73,74,75,76,77,78,79,80,81,82,83,84,85,86,87,88,89,90,91,92,93,94,95,96,97,98,99,100,101,102,103,104,105,106,107,108,109,110,111,112,113,114,115,116,117,118,119,120,121,122,123,124,125,126,127,128,129,130,131,132,133,134,135,136,137,138,139,140,141,142,143,144,145,146,147,148,149,150,151,152,153,154,155,156,157,158,159,160,161,162,163,164,165,166,167,168,169,170,171,172,173,174,175,0,4,6,8,11,12,69,109,0,1,3,4,10,12,1,3,5,6,7,10,11,12,13,14,15,17,18,19,20,21,22,24,26,27,28,29,30,31,32,33,34,37,38,40,44,46,50,52,53,54,55,58,59,61,62,63,64,65,67,68,70,72,76,77,79,80,81,82,83,84,85,86,88,89,90,93,94,95,97,98,100,102,104,105,106,107,110,114,116,118,119,120,121,123,124,125,126,127,128,130,131,132,133,135,136,137,138,140,147,149,150,153,154,155,156,157,158,159,161,162,163,164,166,169,170,172,174,0,1,2,3,4,5,6,7,8,9,10,11,12,13,14,15,16,17,18,19,20,21,22,23,24,25,26,27,28,29,30,31,32,33,34,35,36,37,38,39,40,41,42,43,44,45,46,47,48,49,50,51,52,53,54,55,56,57,58,59,60,61,62,63,64,65,66,67,68,69,70,71,72,73,74,75,76,77,78,79,80,81,82,83,84,85,86,87,88,89,90,91,92,93,94,95,96,97,98,99,100,101,102,103,104,105,106,107,108,109,110,111,112,113,114,115,116,117,118,119,120,121,122,123,124,125,126,127,128,129,130,131,132,133,134,135,136,137,138,139,140,141,142,143,144,145,146,0,12,1,5,7,9,10,13,2,3,5,7,0,1,2,3,4,5,7,8,9,10,11,12,0,1,2,3,5,6,7,8,9,10,11,12,13,0,1,10,0,1,3,4,5,6,7,8,9,10,11,12,13,2,3,6,14,17,29,34,38,39,41,47,49,57,61,63,67,71,73,75,80,81,82,84,86,90,104,106,107,108,109,112,114,119,127,138,139,141,146,156,157,160,162,0,1,2,3,4,5,7,8,9,10,11,12],"categories_nodes":[1,2,3,4,5,7,11,13,16,17,18,20,22,29,31,33,36],"categories_segments":[0,159,167,340,346,348,354,467,614,616,622,626,638,651,654,667,709],"categories_sizes":[159,8,173,6,2,6,113,147,2,6,4,12,13,3,13,42,12],"default_left":[0,0,1,0,1,1,0,1,0,0,0,0,0,0,0,0,1,1,1,0,1,0,1,0,0,0,0,0,0,1,0,1,0,1,0,0,1,0,0,0,0,0,0,0,0,0,0,0,0,0,0,0,0,0,0,0,0],"id":10,"left_children":[1,3,5,7,9,11,13,15,-1,17,19,21,23,25,-1,27,29,31,33,35,37,-1,39,-1,-1,-1,-1,-1,41,43,-1,45,47,49,51,-1,53,-1,-1,-1,55,-1,-1,-1,-1,-1,-1,-1,-1,-1,-1,-1,-1,-1,-1,-1,-1],"loss_changes":[3.2813403E3,9.261072E1,1.7110815E2,3.3602043E1,5.3755127E1,3.3657715E1,2.06861E1,9.754167E0,0E0,1.27095764E2,1.8254272E1,2.2284668E1,2.5116534E0,2.2238827E-1,0E0,9.809389E0,1.5011501E-1,4.0283502E2,1.140509E1,1.1292725E0,1.638815E1,0E0,2.1942871E1,0E0,0E0,0E0,0E0,0E0,1.1259825E0,4.9411678E-1,0E0,1.2178864E1,8.3433075E1,1.3898743E1,8.824158E-1,0E0,3.9010348E0,0E0,0E0,0E0,1.1848816E2,0E0,0E0,0E0,0E0,0E0,0E0,0E0,0E0,0E0,0E0,0E0,0E0,0E0,0E0,0E0,0E0],"parents":[2147483647,0,0,1,1,2,2,3,3,4,4,5,5,6,6,7,7,9,9,10,10,11,11,12,12,13,13,15,15,16,16,17,17,18,18,19,19,20,20,22,22,28,28,29,29,31,31,32,32,33,33,34,34,36,36,40,40],"right_children":[2,4,6,8,10,12,14,16,-1,18,20,22,24,26,-1,28,30,32,34,36,38,-1,40,-1,-1,-1,-1,-1,42,44,-1,46,48,50,52,-1,54,-1,-1,-1,56,-1,-1,-1,-1,-1,-1,-1,-1,-1,-1,-1,-1,-1,-1,-1,-1],"split_conditions":[2.4804E2,NaN,NaN,NaN,NaN,NaN,6.7444E2,NaN,3.376717E-2,2.424E1,2.3356E2,NaN,5.0541E2,NaN,1.678305E-2,2.302E1,NaN,NaN,NaN,2.2011E2,NaN,3.697443E-2,NaN,-7.597762E-3,6.996745E-3,-3.1359615E-3,-1.0808518E-2,2.416152E-2,8.103E1,NaN,-8.413186E-3,NaN,1.73E1,NaN,2.495E1,-1.1934772E-2,NaN,2.2055523E-2,-8.868962E-3,3.719359E-2,5.8075E2,-6.7164996E-3,3.7381218E-3,-6.1299894E-3,9.732069E-4,3.6826815E-2,1.6791208E-2,-9.50106E-3,4.815331E-3,-5.57478E-3,-1.1571754E-2,-1.274172E-3,-1.1933037E-2,6.525166E-3,-9.755477E-3,3.4466216E-3,3.2373838E-2],"split_indices":[0,3,2,3,2,1,0,2,0,0,0,3,0,3,0,0,2,2,2,0,2,0,2,0,0,0,0,0,0,2,0,2,0,1,0,0,2,0,0,0,0,0,0,0,0,0,0,0,0,0,0,0,0,0,0,0,0],"split_type":[0,1,1,1,1,1,0,1,0,0,0,1,0,1,0,0,1,1,1,0,1,0,1,0,0,0,0,0,0,1,0,1,0,1,0,0,1,0,0,0,0,0,0,0,0,0,0,0,0,0,0,0,0,0,0,0,0],"sum_hessian":[1.6613845E3,1.4242028E3,2.3718182E2,1.4043179E1,1.4101595E3,2.2375955E2,1.3422267E1,9.021939E0,5.0212398E0,7.6163666E2,6.485228E2,2.2097327E2,2.786286E0,1.059657E1,2.8256972E0,4.337721E0,4.684218E0,2.697298E2,4.919069E2,6.434829E2,5.0399404E0,1.1018E2,1.10793274E2,1.626001E0,1.1602851E0,1.457046E0,9.139524E0,2.051699E0,2.2860222E0,2.4690971E0,2.2151206E0,2.8091005E1,2.416388E2,1.608461E2,3.310608E2,6.3791815E2,5.5647655E0,2.2343817E0,2.8055584E0,3.125423E1,7.953904E1,1.2634535E0,1.0225687E0,1.0181947E0,1.4509026E0,2.1567444E1,6.523561E0,1.9062299E2,5.101581E1,8.370418E1,7.714192E1,1.0325481E0,3.3002823E2,1.2418141E0,4.3229513E0,1.8698437E1,6.0840607E1],"tree_param":{"num_deleted":"0","num_feature":"4","num_nodes":"57","size_leaf_vector":"1"}},{"base_weights":[-3.5923368E-1,-9.32269E-1,2.9992485E0,1.5222791E0,-9.5810914E-1,3.1980183E0,-3.653335E-1,2.874651E-1,3.3014625E-2,-7.7556914E-1,-1.1714792E0,3.2396038E0,-1.2674582E-1,-1.0085982E0,1.6539797E-2,1.2240572E0,-6.491488E-1,-2.2442885E-1,-1.0782149E0,-1.1865739E0,6.170363E-1,3.596388E-2,2.8549697E0,-7.5733247E-3,6.944403E-3,-3.1211323E-3,-1.0781503E-2,2.3780929E-2,-2.3136695E-1,-2.8673297E-1,-8.386377E-3,3.210037E0,-6.4346933E-1,-8.4681094E-1,-1.1879982E0,-1.19111715E-2,-5.649952E-1,2.1717377E-2,-8.842029E-3,3.62178E-2,2.5061693E0,-6.6957013E-3,3.7146758E-3,-6.111329E-3,9.670828E-4,3.380046E-2,5.1163593E-3,-9.466214E-3,4.75409E-3,-5.5397344E-3,-1.1546109E-2,-1.2682269E-3,-1.1909459E-2,6.474534E-3,-9.727694E-3,3.407034E-3,3.1504817E-2],"categories":[0,1,2,3,5,6,7,8,10,11,13,14,15,16,17,18,20,21,22,23,24,25,26,27,28,29,30,31,32,33,34,37,38,40,41,42,43,44,45,46,47,48,49,50,51,52,53,54,55,56,57,58,59,61,63,64,65,66,67,68,69,70,72,73,74,76,77,79,80,81,82,83,84,85,86,87,88,89,90,91,92,93,94,95,96,97,98,99,100,101,102,103,104,105,106,107,108,109,110,111,112,113,114,115,116,117,118,119,120,121,122,123,124,126,127,128,129,130,131,132,133,134,135,136,137,138,139,140,141,142,143,144,147,148,149,150,151,152,153,154,155,156,157,158,159,160,161,163,164,165,166,168,169,170,171,172,173,174,175,1,2,3,5,7,9,10,13,0,1,2,3,4,5,6,7,8,10,11,13,14,15,16,17,18,19,20,21,22,23,24,25,26,27,28,29,30,31,32,33,34,35,36,37,38,39,40,41,42,43,44,45,46,47,48,49,50,51,52,53,54,55,56,57,58,59,60,61,63,64,65,66,67,68,69,70,71,72,73,74,75,76,77,78,79,80,81,82,83,84,85,86,87,88,89,90,91,92,93,94,95,96,97,98,99,100,101,102,103,104,105,106,107,108,109,110,111,112,113,114,115,116,117,118,119,120,121,122,123,124,125,126,127,128,129,130,131,132,133,134,135,136,137,138,139,140,141,142,143,144,145,146,147,148,149,150,151,152,153,154,155,156,157,158,159,160,161,162,163,164,165,166,167,168,169,170,171,172,173,174,175,0,4,6,8,11,12,69,109,0,1,3,4,10,12,1,3,5,6,7,10,11,12,13,14,15,17,18,19,20,21,22,24,26,27,28,29,30,31,32,33,34,37,38,40,44,46,50,52,53,54,55,58,59,61,62,63,64,65,67,68,70,72,76,77,79,80,81,82,83,84,85,86,88,89,90,93,94,95,97,98,100,102,104,105,106,107,109,110,114,116,118,119,120,121,123,124,125,126,127,128,130,131,132,133,135,136,137,138,140,147,149,150,153,154,155,156,157,158,159,161,162,164,166,169,170,172,174,0,1,2,3,4,5,6,7,8,9,10,11,12,13,14,15,16,17,18,19,20,21,22,23,24,25,26,27,28,29,30,31,32,33,34,35,36,37,38,39,40,41,42,43,44,45,46,47,48,49,50,51,52,53,54,55,56,57,58,59,60,61,62,63,64,65,66,67,68,69,70,71,72,73,74,75,76,77,78,79,80,81,82,83,84,85,86,87,88,89,90,91,92,93,94,95,96,97,98,99,100,101,102,103,104,105,106,107,108,109,110,111,112,113,114,115,116,117,118,119,120,121,122,123,124,125,126,127,128,129,130,131,132,133,134,135,136,137,138,139,140,141,142,143,144,145,146,0,12,1,5,7,9,10,13,2,3,5,7,0,1,2,3,4,5,7,8,9,10,11,12,0,1,2,3,5,6,7,8,9,10,11,12,13,0,1,10,2,3,6,14,17,29,34,38,39,41,47,49,57,61,63,67,71,73,75,80,81,82,84,86,90,104,106,107,108,109,112,114,119,127,138,139,141,146,156,157,160,162,0,1,2,3,4,5,7,8,9,10,11,12],"categories_nodes":[1,2,3,4,5,7,11,13,16,17,18,20,22,29,33,36],"categories_segments":[0,159,167,340,346,348,354,467,614,616,622,626,638,651,654,696],"categories_sizes":[159,8,173,6,2,6,113,147,2,6,4,12,13,3,42,12],"default_left":[0,0,1,0,1,1,0,1,0,0,0,0,0,0,0,0,1,1,1,0,1,0,1,0,0,0,0,0,0,1,0,0,0,1,0,0,1,0,0,0,0,0,0,0,0,0,0,0,0,0,0,0,0,0,0,0,0],"id":11,"left_children":[1,3,5,7,9,11,13,15,-1,17,19,21,23,25,-1,27,29,31,33,35,37,-1,39,-1,-1,-1,-1,-1,41,43,-1,45,47,49,51,-1,53,-1,-1,-1,55,-1,-1,-1,-1,-1,-1,-1,-1,-1,-1,-1,-1,-1,-1,-1,-1],"loss_changes":[3.191286E3,9.127246E1,1.6282373E2,3.2309273E1,5.3693726E1,3.1980957E1,2.0348293E1,9.594602E0,0E0,1.26275665E2,1.8129272E1,2.0685303E1,2.484898E0,2.2192192E-1,0E0,9.556997E0,1.4886141E-1,3.908331E2,1.1425964E1,1.1325073E0,1.6043167E1,0E0,2.1251343E1,0E0,0E0,0E0,0E0,0E0,1.1159399E0,4.9022916E-1,0E0,1.1823029E1,8.239487E1,1.386718E1,8.7942505E-1,0E0,3.8640969E0,0E0,0E0,0E0,1.12199585E2,0E0,0E0,0E0,0E0,0E0,0E0,0E0,0E0,0E0,0E0,0E0,0E0,0E0,0E0,0E0,0E0],"parents":[2147483647,0,0,1,1,2,2,3,3,4,4,5,5,6,6,7,7,9,9,10,10,11,11,12,12,13,13,15,15,16,16,17,17,18,18,19,19,20,20,22,22,28,28,29,29,31,31,32,32,33,33,34,34,36,36,40,40],"right_children":[2,4,6,8,10,12,14,16,-1,18,20,22,24,26,-1,28,30,32,34,36,38,-1,40,-1,-1,-1,-1,-1,42,44,-1,46,48,50,52,-1,54,-1,-1,-1,56,-1,-1,-1,-1,-1,-1,-1,-1,-1,-1,-1,-1,-1,-1,-1,-1],"split_conditions":[2.4804E2,NaN,NaN,NaN,NaN,NaN,6.7444E2,NaN,3.3014625E-2,2.424E1,2.3356E2,NaN,5.0541E2,NaN,1.6539797E-2,2.302E1,NaN,NaN,NaN,2.2011E2,NaN,3.596388E-2,NaN,-7.5733247E-3,6.944403E-3,-3.1211323E-3,-1.0781503E-2,2.3780929E-2,8.103E1,NaN,-8.386377E-3,2.246E1,1.73E1,NaN,2.495E1,-1.19111715E-2,NaN,2.1717377E-2,-8.842029E-3,3.62178E-2,5.8075E2,-6.6957013E-3,3.7146758E-3,-6.111329E-3,9.670828E-4,3.380046E-2,5.1163593E-3,-9.466214E-3,4.75409E-3,-5.5397344E-3,-1.1546109E-2,-1.2682269E-3,-1.1909459E-2,6.474534E-3,-9.727694E-3,3.407034E-3,3.1504817E-2],"split_indices":[0,3,2,3,2,1,0,2,0,0,0,3,0,3,0,0,2,2,2,0,2,0,2,0,0,0,0,0,0,2,0,0,0,1,0,0,2,0,0,0,0,0,0,0,0,0,0,0,0,0,0,0,0,0,0,0,0],"split_type":[0,1,1,1,1,1,0,1,0,0,0,1,0,1,0,0,1,1,1,0,1,0,1,0,0,0,0,0,0,1,0,0,0,1,0,0,1,0,0,0,0,0,0,0,0,0,0,0,0,0,0,0,0,0,0,0,0],"sum_hessian":[1.6557639E3,1.4150465E3,2.4071748E2,1.4138333E1,1.4009082E3,2.273366E2,1.3380883E1,9.031639E0,5.1066947E0,7.574975E2,6.434107E2,2.2455354E2,2.7830553E0,1.0527733E1,2.8531504E0,4.3624225E0,4.669217E0,2.6913123E2,4.8836624E2,6.383597E2,5.051003E0,1.1216225E2,1.123913E2,1.618201E0,1.1648544E0,1.4540957E0,9.073637E0,2.0795512E0,2.282871E0,2.465981E0,2.2032359E0,2.8541769E1,2.4058946E2,1.5994458E2,3.2842166E2,6.3281793E2,5.5417457E0,2.261911E0,2.789092E0,3.2205826E1,8.018547E1,1.257839E0,1.0250319E0,1.0141642E0,1.4518169E0,2.6612476E1,1.9292941E0,1.8942111E2,5.116835E1,8.339923E1,7.654534E1,1.0317056E0,3.2738995E2,1.246805E0,4.294941E0,1.8737965E1,6.1447506E1],"tree_param":{"num_deleted":"0","num_feature":"4","num_nodes":"57","size_leaf_vector":"1"}},{"base_weights":[-3.5685644E-1,-9.289415E-1,2.928251E0,1.5004724E0,-9.548422E-1,3.1192105E0,-3.6258164E-1,2.8501007E-1,3.229841E-2,-7.7204484E-1,-1.1690426E0,3.1591504E0,-1.2576394E-1,-1.0057231E0,1.6302295E-2,1.2101629E0,-6.467586E-1,-2.2260024E-1,-1.075273E0,-1.1842196E0,6.1185336E-1,3.505444E-2,2.7867525E0,-7.5490177E-3,6.8925284E-3,-3.1063715E-3,-1.075471E-2,2.341124E-2,-2.3018843E-1,-2.856093E-1,-8.35972E-3,3.1316698E0,-6.398439E-1,-8.4317005E-1,-1.1856551E0,-1.188789E-2,-5.61833E-1,2.1388445E-2,-8.815245E-3,3.5272315E-2,2.4524515E0,-6.675003E-3,3.6913855E-3,-6.092758E-3,9.609985E-4,3.5026357E-2,1.6015243E-2,-9.431516E-3,4.693835E-3,-5.5048326E-3,-1.1520743E-2,-1.26231E-3,-1.1886201E-2,6.4243656E-3,-9.700086E-3,2.4012E-3,3.0676266E-2],"categories":[0,1,2,3,5,6,7,8,10,11,13,14,15,16,17,18,20,21,22,23,24,25,26,27,28,29,30,31,32,33,34,37,38,40,41,42,43,44,45,46,47,48,49,50,51,52,53,54,55,56,57,58,59,61,63,64,65,66,67,68,69,70,72,73,74,76,77,79,80,81,82,83,84,85,86,87,88,89,90,91,92,93,94,95,96,97,98,99,100,101,102,103,104,105,106,107,108,109,110,111,112,113,114,115,116,117,118,119,120,121,122,123,124,126,127,128,129,130,131,132,133,134,135,136,137,138,139,140,141,142,143,144,147,148,149,150,151,152,153,154,155,156,157,158,159,160,161,163,164,165,166,168,169,170,171,172,173,174,175,1,2,3,5,7,9,10,13,0,1,2,3,4,5,6,7,8,10,11,13,14,15,16,17,18,19,20,21,22,23,24,25,26,27,28,29,30,31,32,33,34,35,36,37,38,39,40,41,42,43,44,45,46,47,48,49,50,51,52,53,54,55,56,57,58,59,60,61,63,64,65,66,67,68,69,70,71,72,73,74,75,76,77,78,79,80,81,82,83,84,85,86,87,88,89,90,91,92,93,94,95,96,97,98,99,100,101,102,103,104,105,106,107,108,109,110,111,112,113,114,115,116,117,118,119,120,121,122,123,124,125,126,127,128,129,130,131,132,133,134,135,136,137,138,139,140,141,142,143,144,145,146,147,148,149,150,151,152,153,154,155,156,157,158,159,160,161,162,163,164,165,166,167,168,169,170,171,172,173,174,175,0,4,6,8,11,12,69,109,0,1,3,4,10,12,1,3,5,6,7,10,11,12,13,14,15,17,18,19,20,21,22,24,26,27,28,29,30,31,32,33,34,37,40,44,46,50,52,53,54,55,58,59,61,62,63,64,65,67,68,70,72,74,76,77,79,80,81,82,83,84,85,86,88,89,90,93,94,95,97,98,100,102,104,105,106,107,110,114,116,118,119,120,121,123,124,125,126,127,128,130,131,132,133,135,136,137,138,140,147,149,150,153,154,155,156,157,158,159,160,161,162,164,166,169,170,172,174,0,1,2,3,4,5,6,7,8,9,10,11,12,13,14,15,16,17,18,19,20,21,22,23,24,25,26,27,28,29,30,31,32,33,34,35,36,37,38,39,40,41,42,43,44,45,46,47,48,49,50,51,52,53,54,55,56,57,58,59,60,61,62,63,64,65,66,67,68,69,70,71,72,73,74,75,76,77,78,79,80,81,82,83,84,85,86,87,88,89,90,91,92,93,94,95,96,97,98,99,100,101,102,103,104,105,106,107,108,109,110,111,112,113,114,115,116,117,118,119,120,121,122,123,124,125,126,127,128,129,130,131,132,133,134,135,136,137,138,139,140,141,142,143,144,145,146,0,12,1,5,7,9,10,13,2,3,5,7,0,1,2,3,4,5,7,8,9,10,11,12,0,1,2,3,5,6,7,8,9,10,11,12,13,0,1,10,0,1,3,4,5,6,7,8,9,10,11,12,13,2,3,6,14,17,29,34,38,39,41,47,49,57,61,63,67,71,73,75,80,81,82,84,86,90,104,106,107,108,109,112,114,119,127,138,139,141,146,156,157,160,162,0,1,2,3,4,5,7,8,9,10,11,12],"categories_nodes":[1,2,3,4,5,7,11,13,16,17,18,20,22,29,31,33,36],"categories_segments":[0,159,167,340,346,348,354,467,614,616,622,626,638,651,654,667,709],"categories_sizes":[159,8,173,6,2,6,113,147,2,6,4,12,13,3,13,42,12],"default_left":[0,0,1,0,1,1,0,1,0,0,0,0,0,0,0,0,1,1,1,0,1,0,1,0,0,0,0,0,0,1,0,1,0,1,0,0,1,0,0,0,0,0,0,0,0,0,0,0,0,0,0,0,0,0,0,0,0],"id":12,"left_children":[1,3,5,7,9,11,13,15,-1,17,19,21,23,25,-1,27,29,31,33,35,37,-1,39,-1,-1,-1,-1,-1,41,43,-1,45,47,49,51,-1,53,-1,-1,-1,55,-1,-1,-1,-1,-1,-1,-1,-1,-1,-1,-1,-1,-1,-1,-1,-1],"loss_changes":[3.1056436E3,8.9962036E1,1.5516797E2,3.1093544E1,5.3629272E1,3.0436768E1,2.0017868E1,9.438253E0,0E0,1.25445435E2,1.8004456E1,1.9762695E1,2.4584532E0,2.2147179E-1,0E0,9.313652E0,1.476202E-1,3.7922922E2,1.1447754E1,1.1359863E0,1.5708351E1,0E0,1.9871094E1,0E0,0E0,0E0,0E0,0E0,1.1059942E0,4.863775E-1,0E0,1.141272E1,8.137117E1,1.3836136E1,8.764343E-1,0E0,3.8275275E0,0E0,0E0,0E0,1.11765015E2,0E0,0E0,0E0,0E0,0E0,0E0,0E0,0E0,0E0,0E0,0E0,0E0,0E0,0E0,0E0,0E0],"parents":[2147483647,0,0,1,1,2,2,3,3,4,4,5,5,6,6,7,7,9,9,10,10,11,11,12,12,13,13,15,15,16,16,17,17,18,18,19,19,20,20,22,22,28,28,29,29,31,31,32,32,33,33,34,34,36,36,40,40],"right_children":[2,4,6,8,10,12,14,16,-1,18,20,22,24,26,-1,28,30,32,34,36,38,-1,40,-1,-1,-1,-1,-1,42,44,-1,46,48,50,52,-1,54,-1,-1,-1,56,-1,-1,-1,-1,-1,-1,-1,-1,-1,-1,-1,-1,-1,-1,-1,-1],"split_conditions":[2.4804E2,NaN,NaN,NaN,NaN,NaN,6.7444E2,NaN,3.229841E-2,2.424E1,2.3356E2,NaN,5.0541E2,NaN,1.6302295E-2,2.302E1,NaN,NaN,NaN,2.2011E2,NaN,3.505444E-2,NaN,-7.5490177E-3,6.8925284E-3,-3.1063715E-3,-1.075471E-2,2.341124E-2,8.103E1,NaN,-8.35972E-3,NaN,1.73E1,NaN,2.495E1,-1.188789E-2,NaN,2.1388445E-2,-8.815245E-3,3.5272315E-2,5.8075E2,-6.675003E-3,3.6913855E-3,-6.092758E-3,9.609985E-4,3.5026357E-2,1.6015243E-2,-9.431516E-3,4.693835E-3,-5.5048326E-3,-1.1520743E-2,-1.26231E-3,-1.1886201E-2,6.4243656E-3,-9.700086E-3,2.4012E-3,3.0676266E-2],"split_indices":[0,3,2,3,2,1,0,2,0,0,0,3,0,3,0,0,2,2,2,0,2,0,2,0,0,0,0,0,0,2,0,2,0,1,0,0,2,0,0,0,0,0,0,0,0,0,0,0,0,0,0,0,0,0,0,0,0],"split_type":[0,1,1,1,1,1,0,1,0,0,0,1,0,1,0,0,1,1,1,0,1,0,1,0,0,0,0,0,0,1,0,1,0,1,0,0,1,0,0,0,0,0,0,0,0,0,0,0,0,0,0,0,0,0,0,0,0],"sum_hessian":[1.6500526E3,1.4059335E3,2.4411908E2,1.4230421E1,1.3917031E3,2.3077962E2,1.3339461E1,9.040934E0,5.189487E0,7.533785E2,6.383246E2,2.2799979E2,2.7798247E0,1.045926E1,2.8802006E0,4.38665E0,4.654284E0,2.6853378E2,4.8484473E2,6.3326294E2,5.0616817E0,1.1378122E2,1.14218575E2,1.6104361E0,1.1693885E0,1.451161E0,9.0081E0,2.106918E0,2.2797322E0,2.4628766E0,2.1914072E0,2.898825E1,2.3954553E2,1.5904848E2,3.2579623E2,6.277441E2,5.5188403E0,2.288971E0,2.7727108E0,3.25559E1,8.1662674E1,1.2522507E0,1.0274816E0,1.0101509E0,1.4527256E0,2.2294195E1,6.694054E0,1.882265E2,5.1319035E1,8.309656E1,7.595191E1,1.0308676E0,3.2476538E2,1.2517605E0,4.26708E0,1.8069681E1,6.359299E1],"tree_param":{"num_deleted":"0","num_feature":"4","num_nodes":"57","size_leaf_vector":"1"}},{"base_weights":[-3.5451543E-1,-9.2564195E-1,2.8609948E0,1.4792836E0,-9.5160216E-1,3.0447142E0,-3.5986587E-1,2.8256077E-1,3.1616066E-2,-7.685443E-1,-1.1666368E0,3.083133E0,-1.2479843E-1,-1.0028667E0,1.6070357E-2,1.1965144E0,-6.443821E-1,-2.2075649E-1,-1.0723532E0,-1.1818962E0,6.0671973E-1,3.4160092E-2,2.7241082E0,-7.5248387E-3,6.8411166E-3,-3.091681E-3,-1.0728136E-2,2.3052031E-2,-2.2902158E-1,-2.8449282E-1,-8.333211E-3,3.0589998E0,-6.362366E-1,-8.3954304E-1,-1.183343E0,-1.1864922E-2,-5.5869365E-1,2.1068394E-2,-8.788608E-3,3.4382127E-2,2.4030106E0,-6.6544036E-3,3.668248E-3,-6.074276E-3,9.5495366E-4,3.2195058E-2,4.8492644E-3,-9.396958E-3,4.63454E-3,-5.4700756E-3,-1.1495654E-2,-1.2564214E-3,-1.1863255E-2,6.374652E-3,-9.672649E-3,2.375112E-3,2.9955838E-2],"categories":[0,1,2,3,5,6,7,8,10,11,13,14,15,16,17,18,20,21,22,23,24,25,26,27,28,29,30,31,32,33,34,37,38,40,41,42,43,44,45,46,47,48,49,50,51,52,53,54,55,56,57,58,59,61,63,64,65,66,67,68,69,70,72,73,74,76,77,79,80,81,82,83,84,85,86,87,88,89,90,91,92,93,94,95,96,97,98,99,100,101,102,103,104,105,106,107,108,109,110,111,112,113,114,115,116,117,118,119,120,121,122,123,124,126,127,128,129,130,131,132,133,134,135,136,137,138,139,140,141,142,143,144,147,148,149,150,151,152,153,154,155,156,157,158,159,160,161,163,164,165,166,168,169,170,171,172,173,174,175,1,2,3,5,7,9,10,13,0,1,2,3,4,5,6,7,8,10,11,13,14,15,16,17,18,19,20,21,22,23,24,25,26,27,28,29,30,31,32,33,34,35,36,37,38,39,40,41,42,43,44,45,46,47,48,49,50,51,52,53,54,55,56,57,58,59,60,61,63,64,65,66,67,68,69,70,71,72,73,74,75,76,77,78,79,80,81,82,83,84,85,86,87,88,89,90,91,92,93,94,95,96,97,98,99,100,101,102,103,104,105,106,107,108,109,110,111,112,113,114,115,116,117,118,119,120,121,122,123,124,125,126,127,128,129,130,131,132,133,134,135,136,137,138,139,140,141,142,143,144,145,146,147,148,149,150,151,152,153,154,155,156,157,158,159,160,161,162,163,164,165,166,167,168,169,170,171,172,173,174,175,0,4,6,8,11,12,69,109,0,1,3,4,10,12,1,3,5,6,7,10,11,12,13,14,15,17,18,19,20,21,22,24,26,27,28,29,30,31,32,33,34,37,40,44,46,48,50,52,53,54,55,58,59,61,62,63,64,65,67,68,70,72,76,77,79,80,81,82,83,84,85,86,88,89,90,93,94,95,97,98,100,102,104,105,106,107,110,114,116,118,119,120,121,123,124,125,126,127,128,130,131,132,133,135,136,137,138,140,147,149,150,153,154,155,156,157,158,159,160,161,162,164,166,169,170,172,174,0,1,2,3,4,5,6,7,8,9,10,11,12,13,14,15,16,17,18,19,20,21,22,23,24,25,26,27,28,29,30,31,32,33,34,35,36,37,38,39,40,41,42,43,44,45,46,47,48,49,50,51,52,53,54,55,56,57,58,59,60,61,62,63,64,65,66,67,68,69,70,71,72,73,74,75,76,77,78,79,80,81,82,83,84,85,86,87,88,89,90,91,92,93,94,95,96,97,98,99,100,101,102,103,104,105,106,107,108,109,110,111,112,113,114,115,116,117,118,119,120,121,122,123,124,125,126,127,128,129,130,131,132,133,134,135,136,137,138,139,140,141,142,143,144,145,146,0,12,1,5,7,9,10,13,2,3,5,7,0,1,2,3,4,5,7,8,9,10,11,12,0,1,2,3,5,6,7,8,9,10,11,12,13,0,1,10,2,3,6,14,17,29,34,38,39,41,47,49,57,61,63,67,71,73,75,80,81,82,84,86,90,104,106,107,108,109,112,114,119,127,138,139,141,146,156,157,160,162,0,1,2,3,4,5,7,8,9,10,11,12],"categories_nodes":[1,2,3,4,5,7,11,13,16,17,18,20,22,29,33,36],"categories_segments":[0,159,167,340,346,348,354,467,614,616,622,626,638,651,654,696],"categories_sizes":[159,8,173,6,2,6,113,147,2,6,4,12,13,3,42,12],"default_left":[0,0,1,0,1,1,0,1,0,0,0,0,0,0,0,0,1,1,1,0,1,0,1,0,0,0,0,0,0,1,0,0,0,1,0,0,1,0,0,0,0,0,0,0,0,0,0,0,0,0,0,0,0,0,0,0,0],"id":13,"left_children":[1,3,5,7,9,11,13,15,-1,17,19,21,23,25,-1,27,29,31,33,35,37,-1,39,-1,-1,-1,-1,-1,41,43,-1,45,47,49,51,-1,53,-1,-1,-1,55,-1,-1,-1,-1,-1,-1,-1,-1,-1,-1,-1,-1,-1,-1,-1,-1],"loss_changes":[3.0240554E3,8.867822E1,1.4807617E2,2.9948944E1,5.3564087E1,2.9011719E1,1.9694609E1,9.285049E0,0E0,1.2462326E2,1.7880554E1,1.8458496E1,2.4323153E0,2.2104263E-1,0E0,9.078955E0,1.4639044E-1,3.6838983E2,1.1470032E1,1.1392822E0,1.5383315E1,0E0,1.8498047E1,0E0,0E0,0E0,0E0,0E0,1.0961442E0,4.8256135E-1,0E0,1.1002014E1,8.036171E1,1.3805595E1,8.736267E-1,0E0,3.7913215E0,0E0,0E0,0E0,1.0685635E2,0E0,0E0,0E0,0E0,0E0,0E0,0E0,0E0,0E0,0E0,0E0,0E0,0E0,0E0,0E0,0E0],"parents":[2147483647,0,0,1,1,2,2,3,3,4,4,5,5,6,6,7,7,9,9,10,10,11,11,12,12,13,13,15,15,16,16,17,17,18,18,19,19,20,20,22,22,28,28,29,29,31,31,32,32,33,33,34,34,36,36,40,40],"right_children":[2,4,6,8,10,12,14,16,-1,18,20,22,24,26,-1,28,30,32,34,36,38,-1,40,-1,-1,-1,-1,-1,42,44,-1,46,48,50,52,-1,54,-1,-1,-1,56,-1,-1,-1,-1,-1,-1,-1,-1,-1,-1,-1,-1,-1,-1,-1,-1],"split_conditions":[2.4804E2,NaN,NaN,NaN,NaN,NaN,6.7444E2,NaN,3.1616066E-2,2.424E1,2.3356E2,NaN,5.0541E2,NaN,1.6070357E-2,2.302E1,NaN,NaN,NaN,2.2011E2,NaN,3.4160092E-2,NaN,-7.5248387E-3,6.8411166E-3,-3.091681E-3,-1.0728136E-2,2.3052031E-2,8.103E1,NaN,-8.333211E-3,2.246E1,1.73E1,NaN,2.495E1,-1.1864922E-2,NaN,2.1068394E-2,-8.788608E-3,3.4382127E-2,5.8075E2,-6.6544036E-3,3.668248E-3,-6.074276E-3,9.5495366E-4,3.2195058E-2,4.8492644E-3,-9.396958E-3,4.63454E-3,-5.4700756E-3,-1.1495654E-2,-1.2564214E-3,-1.1863255E-2,6.374652E-3,-9.672649E-3,2.375112E-3,2.9955838E-2],"split_indices":[0,3,2,3,2,1,0,2,0,0,0,3,0,3,0,0,2,2,2,0,2,0,2,0,0,0,0,0,0,2,0,0,0,1,0,0,2,0,0,0,0,0,0,0,0,0,0,0,0,0,0,0,0,0,0,0,0],"split_type":[0,1,1,1,1,1,0,1,0,0,0,1,0,1,0,0,1,1,1,0,1,0,1,0,0,0,0,0,0,1,0,0,0,1,0,0,1,0,0,0,0,0,0,0,0,0,0,0,0,0,0,0,0,0,0,0,0],"sum_hessian":[1.6442316E3,1.396842E3,2.4738956E2,1.4319468E1,1.3825226E3,2.3409155E2,1.3298005E1,9.049822E0,5.269645E0,7.492576E2,6.3326495E2,2.3131496E2,2.776594E0,1.0391155E1,2.9068499E0,4.410404E0,4.639418E0,2.6791516E2,4.8134247E2,6.28193E2,5.071977E0,1.15610214E2,1.1570474E2,1.6027064E0,1.1738875E0,1.4482422E0,8.942913E0,2.1337974E0,2.2766066E0,2.4597836E0,2.1796346E0,2.940811E1,2.3850706E2,1.5815784E2,3.2318463E2,6.226969E2,5.496048E0,2.3155613E0,2.7564158E0,3.2878025E1,8.282671E1,1.2466891E0,1.0299175E0,1.0061549E0,1.4536288E0,2.7445974E1,1.9621344E0,1.8703917E2,5.14679E1,8.279618E1,7.536166E1,1.0300333E0,3.221546E2,1.2566808E0,4.2393675E0,1.8096323E1,6.473039E1],"tree_param":{"num_deleted":"0","num_feature":"4","num_nodes":"57","size_leaf_vector":"1"}},{"base_weights":[-3.522203E-1,-9.223743E-1,2.7971902E0,1.2035849E0,-9.5065796E-1,2.9741833E0,-3.571856E-1,2.1179792E-1,3.0965338E-2,-7.679913E-1,-1.1657634E0,3.2057628E-2,2.1375337E0,-1.0000287E0,1.584379E-2,1.1799185E0,-7.647327E-1,-2.2742353E-1,-1.0691762E0,-1.1795862E0,4.9048945E-1,2.8227293E0,1.4927578E0,-3.07706E-3,-1.0701774E-2,2.4234153E-2,-2.1873306E-1,-2.3365163E-3,-9.62953E-3,2.981027E0,-6.362035E-1,-8.35266E-1,-1.1810449E0,-1.1842187E-2,-5.5557686E-1,1.9521935E-2,-8.7621175E-3,2.9674962E0,5.837494E-3,-2.168017E-1,2.5796528E0,-8.1963865E-3,8.116937E-3,3.338282E-2,1.5299128E-2,-9.412369E-3,4.576187E-3,-5.507811E-3,-1.1591845E-2,-1.2505602E-3,-1.1840527E-2,6.325392E-3,-9.645381E-3,1.0643418E-2,3.0986331E-2,1.4695675E-2,-9.065811E-3,2.8072828E-2,6.4408686E-3],"categories":[0,1,2,3,5,6,7,8,10,11,13,14,15,16,17,18,20,21,22,23,24,25,26,27,28,29,30,31,32,33,34,37,38,40,41,42,43,44,45,46,47,48,49,50,51,52,53,54,55,56,57,58,59,61,63,64,65,66,67,68,69,70,72,73,74,76,77,79,80,81,82,83,84,85,86,87,88,90,91,92,93,94,95,96,97,98,99,100,101,102,103,104,105,106,107,108,109,110,111,112,113,114,115,116,117,118,119,120,121,122,123,124,126,127,128,129,130,131,132,133,134,135,136,137,138,139,140,141,142,143,144,147,148,149,150,151,152,153,154,155,156,157,158,159,160,161,163,164,165,166,168,169,170,171,172,173,174,175,1,2,3,5,7,9,10,13,0,1,2,3,4,5,6,7,8,10,11,13,14,15,16,17,18,19,20,21,22,23,24,25,26,27,28,29,30,31,32,33,34,35,36,37,38,39,40,41,42,43,44,45,46,47,48,49,50,51,52,53,54,55,56,57,58,59,60,61,63,64,65,66,67,68,69,70,71,72,73,74,75,76,77,78,79,80,81,82,83,84,85,86,87,88,90,91,92,93,94,95,96,97,98,99,100,101,102,103,104,105,106,107,108,109,110,111,112,113,114,115,116,117,118,119,120,121,122,123,124,125,126,127,128,129,130,131,132,133,134,135,136,137,138,139,140,141,142,143,144,145,146,147,148,149,150,151,152,153,154,155,156,157,158,159,160,161,162,163,164,165,166,167,168,169,170,171,172,173,174,175,0,4,6,8,11,12,5,6,8,9,10,12,19,20,24,25,27,28,32,34,36,39,41,48,51,53,54,57,59,65,66,69,70,74,77,78,80,81,83,89,90,91,95,96,98,100,105,106,108,109,113,114,117,119,120,122,123,135,138,139,146,149,151,153,154,155,157,160,161,0,1,3,4,10,12,0,1,2,3,5,7,9,10,11,12,13,0,1,2,3,4,5,6,7,8,9,10,11,12,13,14,15,16,17,18,19,20,21,22,23,24,25,26,27,28,29,30,31,32,33,34,35,36,37,38,39,40,41,42,43,44,45,46,47,48,49,50,51,52,53,54,55,56,57,58,59,60,61,62,63,64,65,66,67,68,69,70,71,72,73,74,75,76,77,78,79,80,81,82,83,84,85,86,87,88,89,90,91,92,93,94,95,96,97,98,99,100,101,102,103,104,105,106,107,108,109,110,111,112,113,114,115,116,117,118,119,120,121,122,123,124,125,126,127,128,129,130,131,132,133,134,135,136,137,138,139,140,141,142,143,144,145,146,0,4,12,1,5,7,9,10,13,2,3,5,7,0,1,2,3,4,5,7,8,9,10,11,12,0,1,2,3,4,5,6,7,8,0,1,3,4,5,6,7,8,9,10,11,12,13,2,3,6,14,17,29,34,38,39,41,47,49,57,61,63,67,71,73,75,80,81,82,84,86,90,104,106,107,108,109,112,119,127,138,139,141,146,156,157,160,162,0,1,2,3,4,5,7,8,9,10,11,12,0,1,2,3,4,5,6,7,8,9,10,11,12,13,14,15,16,17,18,19,20,21,22,23,24,25,26,27,28,29,30,31,32,33,34,35,36,37,38,39,40,41,42,43,44,45,46,47,48,49,50,51,52,53,54,55,56,57,58,59,60,61,62,63,65,66,67,68,69,70,71,72,73,74,75,76,77,78,79,80,81,82,83,84,85,86,87,88,89,90,91,92,93,94,95,96,97,98,99,100,101,102,103,104,105,106,107,108,109,110,111,112,113,114,115,116,117,118,119,120,121,122,123,124,125,126,127,128,129,130,131,132,133,134,135,136,137,138,139,140,141,142,143,144,145,146,147,148,149,150,151,152,153,11,12],"categories_nodes":[1,2,3,4,5,7,12,13,16,17,18,20,21,29,31,34,37,39],"categories_segments":[0,158,166,338,344,407,413,424,571,574,580,584,596,605,618,659,671,824],"categories_sizes":[158,8,172,6,63,6,11,147,3,6,4,12,9,13,41,12,153,2],"default_left":[0,0,1,0,1,1,0,1,0,0,0,0,1,0,0,0,1,1,1,0,1,1,0,0,0,0,0,0,0,1,0,1,0,0,1,0,0,0,0,1,0,0,0,0,0,0,0,0,0,0,0,0,0,0,0,0,0,0,0],"id":14,"left_children":[1,3,5,7,9,11,13,15,-1,17,19,-1,21,23,-1,25,27,29,31,33,35,37,39,-1,-1,-1,41,-1,-1,43,45,47,49,-1,51,-1,-1,53,-1,55,57,-1,-1,-1,-1,-1,-1,-1,-1,-1,-1,-1,-1,-1,-1,-1,-1,-1,-1],"loss_changes":[2.9462368E3,8.465234E1,1.4149377E2,3.440496E1,5.2979492E1,3.9313477E1,1.9378294E1,1.3502578E1,0E0,1.20953064E2,1.4949585E1,0E0,1.9933426E1,2.2062874E-1,0E0,1.2854282E1,5.373683E-1,3.5289532E2,1.1515625E1,1.142395E0,1.3500557E1,6.49263E0,5.6825066E1,0E0,0E0,0E0,3.2982025E0,0E0,0E0,1.066275E1,7.99073E1,1.392025E1,8.708496E-1,0E0,3.7554765E0,0E0,0E0,2.5892792E0,0E0,1.6095695E1,6.3821945E0,0E0,0E0,0E0,0E0,0E0,0E0,0E0,0E0,0E0,0E0,0E0,0E0,0E0,0E0,0E0,0E0,0E0,0E0],"parents":[2147483647,0,0,1,1,2,2,3,3,4,4,5,5,6,6,7,7,9,9,10,10,12,12,13,13,15,15,16,16,17,17,18,18,19,19,20,20,21,21,22,22,26,26,29,29,30,30,31,31,32,32,34,34,37,37,39,39,40,40],"right_children":[2,4,6,8,10,12,14,16,-1,18,20,-1,22,24,-1,26,28,30,32,34,36,38,40,-1,-1,-1,42,-1,-1,44,46,48,50,-1,52,-1,-1,54,-1,56,58,-1,-1,-1,-1,-1,-1,-1,-1,-1,-1,-1,-1,-1,-1,-1,-1,-1,-1],"split_conditions":[2.4804E2,NaN,NaN,NaN,NaN,NaN,6.7444E2,NaN,3.0965338E-2,2.424E1,2.3356E2,3.2057628E-2,NaN,NaN,1.584379E-2,2.302E1,NaN,NaN,NaN,2.2011E2,NaN,NaN,7.3887E2,-3.07706E-3,-1.0701774E-2,2.4234153E-2,8.977E1,-2.3365163E-3,-9.62953E-3,NaN,1.73E1,NaN,2.495E1,-1.1842187E-2,NaN,1.9521935E-2,-8.7621175E-3,NaN,5.837494E-3,NaN,1.1459E3,-8.1963865E-3,8.116937E-3,3.338282E-2,1.5299128E-2,-9.412369E-3,4.576187E-3,-5.507811E-3,-1.1591845E-2,-1.2505602E-3,-1.1840527E-2,6.325392E-3,-9.645381E-3,1.0643418E-2,3.0986331E-2,1.4695675E-2,-9.065811E-3,2.8072828E-2,6.4408686E-3],"split_indices":[0,3,2,3,2,1,0,2,0,0,0,0,2,3,0,0,2,2,2,0,2,1,0,0,0,0,0,0,0,2,0,1,0,0,2,0,0,3,0,2,0,0,0,0,0,0,0,0,0,0,0,0,0,0,0,0,0,0,0],"split_type":[0,1,1,1,1,1,0,1,0,0,0,0,1,1,0,0,1,1,1,0,1,1,0,0,0,0,0,0,0,1,0,1,0,0,1,0,0,1,0,1,0,0,0,0,0,0,0,0,0,0,0,0,0,0,0,0,0,0,0],"sum_hessian":[1.6383275E3,1.3877949E3,2.5053255E2,1.767517E1,1.3701198E3,2.3727602E2,1.325652E1,1.2327971E1,5.3472E0,7.43399E2,6.267208E2,1.8361958E2,5.365644E1,1.0323421E1,2.9331002E0,6.086055E0,6.241916E0,2.666213E2,4.767777E2,6.2181903E2,4.9017606E0,2.4375277E1,2.9281164E1,1.4453388E0,8.878081E0,2.8338702E0,3.2521846E0,2.2886918E0,3.9532244E0,2.9419523E1,2.3720177E2,1.5698933E2,3.1978836E2,6.163457E2,5.4733706E0,2.1615536E0,2.740207E0,2.2589329E1,1.7859461E0,1.1691821E1,1.7589342E1,2.1834462E0,1.0687386E0,2.2563929E1,6.8555946E0,1.855868E2,5.1614956E1,8.502001E1,7.196933E1,1.0292035E0,3.1875916E2,1.2615659E0,4.2118044E0,2.0438468E0,2.0545483E1,3.0658808E0,8.62594E0,1.53354645E1,2.253878E0],"tree_param":{"num_deleted":"0","num_feature":"4","num_nodes":"59","size_leaf_vector":"1"}},{"base_weights":[-3.4993726E-1,-9.191311E-1,2.7363698E0,1.1889154E0,-9.474784E-1,2.9070709E0,-3.5454008E-1,2.1052825E-1,3.0344162E-2,-7.645483E-1,-1.1634256E0,3.1628486E-2,2.0107868E0,-9.972086E-1,1.562242E-2,1.166569E0,-7.617543E-1,-2.2557561E-1,-1.0662978E0,-1.1773235E0,4.8685154E-1,3.0450668E-2,1.4818871E0,-3.0625074E-3,-1.0675622E-2,2.3827953E-2,-2.1692124E-1,-2.3227355E-3,-9.601419E-3,2.9158106E0,-6.3262707E-1,-8.316651E-1,-1.1787934E0,-1.1819831E-2,-5.5248237E-1,1.9252144E-2,-8.735768E-3,-2.9455402E-1,2.4676414E0,-8.171235E-3,8.053967E-3,3.0697763E-2,4.597099E-3,-9.378215E-3,4.5187543E-3,-5.377897E-3,-1.1446506E-2,-1.2447268E-3,-1.1818193E-2,6.2765796E-3,-9.618278E-3,1.4467655E-2,-8.7376395E-3,2.6395952E-2,7.1332715E-3],"categories":[0,1,2,3,5,6,7,8,10,11,13,14,15,16,17,18,20,21,22,23,24,25,26,27,28,29,30,31,32,33,34,37,38,40,41,42,43,44,45,46,47,48,49,50,51,52,53,54,55,56,57,58,59,61,63,64,65,66,67,68,69,70,72,73,74,76,77,79,80,81,82,83,84,85,86,87,88,90,91,92,93,94,95,96,97,98,99,100,101,102,103,104,105,106,107,108,109,110,111,112,113,114,115,116,117,118,119,120,121,122,123,124,126,127,128,129,130,131,132,133,134,135,136,137,138,139,140,141,142,143,144,147,148,149,150,151,152,153,154,155,156,157,158,159,160,161,163,164,165,166,168,169,170,171,172,173,174,175,1,2,3,5,7,9,10,13,0,1,2,3,4,5,6,7,8,10,11,13,14,15,16,17,18,19,20,21,22,23,24,25,26,27,28,29,30,31,32,33,34,35,36,37,38,39,40,41,42,43,44,45,46,47,48,49,50,51,52,53,54,55,56,57,58,59,60,61,63,64,65,66,67,68,69,70,71,72,73,74,75,76,77,78,79,80,81,82,83,84,85,86,87,88,90,91,92,93,94,95,96,97,98,99,100,101,102,103,104,105,106,107,108,109,110,111,112,113,114,115,116,117,118,119,120,121,122,123,124,125,126,127,128,129,130,131,132,133,134,135,136,137,138,139,140,141,142,143,144,145,146,147,148,149,150,151,152,153,154,155,156,157,158,159,160,161,162,163,164,165,166,167,168,169,170,171,172,173,174,175,0,4,6,8,11,12,1,3,5,6,8,9,10,12,19,20,24,25,27,28,32,34,36,39,41,48,49,53,54,57,59,65,66,69,70,74,77,78,80,81,89,90,91,95,98,100,105,106,108,109,113,114,117,119,120,122,123,130,135,139,146,149,151,153,154,155,157,160,161,0,1,3,4,10,12,0,1,2,3,5,7,8,9,10,11,12,13,0,1,2,3,4,5,6,7,8,9,10,11,12,13,14,15,16,17,18,19,20,21,22,23,24,25,26,27,28,29,30,31,32,33,34,35,36,37,38,39,40,41,42,43,44,45,46,47,48,49,50,51,52,53,54,55,56,57,58,59,60,61,62,63,64,65,66,67,68,69,70,71,72,73,74,75,76,77,78,79,80,81,82,83,84,85,86,87,88,89,90,91,92,93,94,95,96,97,98,99,100,101,102,103,104,105,106,107,108,109,110,111,112,113,114,115,116,117,118,119,120,121,122,123,124,125,126,127,128,129,130,131,132,133,134,135,136,137,138,139,140,141,142,143,144,145,146,0,4,12,1,5,7,9,10,13,2,3,5,7,0,1,2,3,4,5,7,8,9,10,11,12,2,3,6,14,17,29,34,38,39,41,47,49,57,61,63,67,71,73,75,80,81,82,84,86,90,104,106,107,108,109,112,114,119,127,138,139,141,146,156,157,160,162,0,1,2,3,4,5,7,8,9,10,11,12,1,2,3,4,5,6,7,8,9,10,11,12,13],"categories_nodes":[1,2,3,4,5,7,12,13,16,17,18,20,31,34,37],"categories_segments":[0,158,166,338,344,407,413,425,572,575,581,585,597,639,651],"categories_sizes":[158,8,172,6,63,6,12,147,3,6,4,12,42,12,13],"default_left":[0,0,1,0,1,1,0,1,0,0,0,0,1,0,0,0,1,1,1,0,1,0,0,0,0,0,0,0,0,0,0,1,0,0,1,0,0,1,0,0,0,0,0,0,0,0,0,0,0,0,0,0,0,0,0],"id":15,"left_children":[1,3,5,7,9,11,13,15,-1,17,19,-1,21,23,-1,25,27,29,31,33,35,-1,37,-1,-1,-1,39,-1,-1,41,43,45,47,-1,49,-1,-1,51,53,-1,-1,-1,-1,-1,-1,-1,-1,-1,-1,-1,-1,-1,-1,-1,-1],"loss_changes":[2.8718293E3,8.357788E1,1.3535168E2,3.321882E1,5.2914673E1,4.8972412E1,1.906872E1,1.327863E1,0E0,1.2015744E2,1.4855408E1,0E0,2.6302994E1,2.2022915E-1,0E0,1.24900875E1,5.34698E-1,3.4322507E2,1.153949E1,1.145752E0,1.3242361E1,0E0,6.940679E1,0E0,0E0,0E0,3.2631485E0,0E0,0E0,1.0237335E1,7.8923256E1,1.3835396E1,8.68103E-1,0E0,3.719987E0,0E0,0E0,1.6282063E1,5.7582397E0,0E0,0E0,0E0,0E0,0E0,0E0,0E0,0E0,0E0,0E0,0E0,0E0,0E0,0E0,0E0,0E0],"parents":[2147483647,0,0,1,1,2,2,3,3,4,4,5,5,6,6,7,7,9,9,10,10,12,12,13,13,15,15,16,16,17,17,18,18,19,19,20,20,22,22,26,26,29,29,30,30,31,31,32,32,34,34,37,37,38,38],"right_children":[2,4,6,8,10,12,14,16,-1,18,20,-1,22,24,-1,26,28,30,32,34,36,-1,38,-1,-1,-1,40,-1,-1,42,44,46,48,-1,50,-1,-1,52,54,-1,-1,-1,-1,-1,-1,-1,-1,-1,-1,-1,-1,-1,-1,-1,-1],"split_conditions":[2.4804E2,NaN,NaN,NaN,NaN,NaN,6.7444E2,NaN,3.0344162E-2,2.424E1,2.3356E2,3.1628486E-2,NaN,NaN,1.562242E-2,2.302E1,NaN,NaN,NaN,2.2011E2,NaN,3.0450668E-2,6.7444E2,-3.0625074E-3,-1.0675622E-2,2.3827953E-2,8.977E1,-2.3227355E-3,-9.601419E-3,2.246E1,1.73E1,NaN,2.495E1,-1.1819831E-2,NaN,1.9252144E-2,-8.735768E-3,NaN,1.1459E3,-8.171235E-3,8.053967E-3,3.0697763E-2,4.597099E-3,-9.378215E-3,4.5187543E-3,-5.377897E-3,-1.1446506E-2,-1.2447268E-3,-1.1818193E-2,6.2765796E-3,-9.618278E-3,1.4467655E-2,-8.7376395E-3,2.6395952E-2,7.1332715E-3],"split_indices":[0,3,2,3,2,1,0,2,0,0,0,0,2,3,0,0,2,2,2,0,2,0,0,0,0,0,0,0,0,0,0,1,0,0,2,0,0,2,0,0,0,0,0,0,0,0,0,0,0,0,0,0,0,0,0],"split_type":[0,1,1,1,1,1,0,1,0,0,0,0,1,1,0,0,1,1,1,0,1,0,0,0,0,0,0,0,0,0,0,1,0,0,1,0,0,1,0,0,0,0,0,0,0,0,0,0,0,0,0,0,0,0,0],"sum_hessian":[1.6323481E3,1.3787699E3,2.5357819E2,1.7751324E1,1.3610187E3,2.4036317E2,1.3215011E1,1.2329141E1,5.422183E0,7.392967E2,6.217219E2,1.85031E2,5.5332172E1,1.0256056E1,2.9589543E0,6.1157393E0,6.213402E0,2.659734E2,4.733233E2,6.16814E2,4.9079113E0,1.7111917E1,3.8220257E1,1.4424512E0,8.813605E0,2.8702207E0,3.2455187E0,2.2851977E0,3.9282038E0,2.9803568E1,2.3616983E2,1.561122E2,3.172111E2,